{"learner":{"attributes":{},"feature_names":[],"feature_types":[],"gradient_booster":{"model":{"gbtree_model_param":{"num_parallel_tree":"1","num_trees":"199"},"iteration_indptr":[0,1,2,3,4,5,6,7,8,9,10,11,12,13,14,15,16,17,18,19,20,21,22,23,24,25,26,27,28,29,30,31,32,33,34,35,36,37,38,39,40,41,42,43,44,45,46,47,48,49,50,51,52,53,54,55,56,57,58,59,60,61,62,63,64,65,66,67,68,69,70,71,72,73,74,75,76,77,78,79,80,81,82,83,84,85,86,87,88,89,90,91,92,93,94,95,96,97,98,99,100,101,102,103,104,105,106,107,108,109,110,111,112,113,114,115,116,117,118,119,120,121,122,123,124,125,126,127,128,129,130,131,132,133,134,135,136,137,138,139,140,141,142,143,144,145,146,147,148,149,150,151,152,153,154,155,156,157,158,159,160,161,162,163,164,165,166,167,168,169,170,171,172,173,174,175,176,177,178,179,180,181,182,183,184,185,186,187,188,189,190,191,192,193,194,195,196,197,198,199],"tree_info":[0,0,0,0,0,0,0,0,0,0,0,0,0,0,0,0,0,0,0,0,0,0,0,0,0,0,0,0,0,0,0,0,0,0,0,0,0,0,0,0,0,0,0,0,0,0,0,0,0,0,0,0,0,0,0,0,0,0,0,0,0,0,0,0,0,0,0,0,0,0,0,0,0,0,0,0,0,0,0,0,0,0,0,0,0,0,0,0,0,0,0,0,0,0,0,0,0,0,0,0,0,0,0,0,0,0,0,0,0,0,0,0,0,0,0,0,0,0,0,0,0,0,0,0,0,0,0,0,0,0,0,0,0,0,0,0,0,0,0,0,0,0,0,0,0,0,0,0,0,0,0,0,0,0,0,0,0,0,0,0,0,0,0,0,0,0,0,0,0,0,0,0,0,0,0,0,0,0,0,0,0,0,0,0,0,0,0,0,0,0,0,0,0,0,0,0,0,0,0],"trees":[{"base_weights":[-5.267033E-1,5.6675105E0,-9.9378455E-1,-4.0073088E-1,6.0147367E0,-1.0525111E0,1.2707704E0,2.7609316E-1,-9.757463E-1,-3.31861E-2,4.9745044E-1,-1.1180228E0,-3.1406653E-1,-5.4164034E-1,4.7281203E0,-8.550406E-2,-0E0,-9.222223E-2,-3.8638826E-2,-5.145987E-2,1.748224E-1,3.002688E-1,-7.336638E-2,4.5307526E-1,-0E0],"categories":[],"categories_nodes":[],"categories_segments":[],"categories_sizes":[],"default_left":[0,0,0,0,0,0,0,0,0,0,0,0,0,0,0,0,0,0,0,0,0,0,0,0,0],"id":0,"left_children":[1,3,5,7,9,11,13,-1,15,-1,-1,17,19,21,23,-1,-1,-1,-1,-1,-1,-1,-1,-1,-1],"loss_changes":[7.8746E4,4.071414E3,3.3709297E3,2.2626436E2,6.295156E2,1.18225E3,4.0433848E3,0E0,2.075058E0,0E0,0E0,7.8546875E1,1.5470305E3,6.185716E2,8.19897E2,0E0,0E0,0E0,0E0,0E0,0E0,0E0,0E0,0E0,0E0],"parents":[2147483647,0,0,1,1,2,2,3,3,4,4,5,5,6,6,8,8,11,11,12,12,13,13,14,14],"right_children":[2,4,6,8,10,12,14,-1,16,-1,-1,18,20,22,24,-1,-1,-1,-1,-1,-1,-1,-1,-1,-1],"split_conditions":[-3.286607E0,9.6722215E-1,1.9461753E0,-3.1261125E-1,-3.283675E-1,1.2394204E0,1.1980826E0,2.7609316E-1,7.216513E-1,-3.31861E-2,4.9745044E-1,2.024248E0,1.2879034E0,-1.1499505E0,7.696923E-1,-8.550406E-2,-0E0,-9.222223E-2,-3.8638826E-2,-5.145987E-2,1.748224E-1,3.002688E-1,-7.336638E-2,4.5307526E-1,-0E0],"split_indices":[11,10,10,29,3,3,3,0,10,0,0,6,17,6,12,0,0,0,0,0,0,0,0,0,0],"split_type":[0,0,0,0,0,0,0,0,0,0,0,0,0,0,0,0,0,0,0,0,0,0,0,0,0],"sum_hessian":[2.7216926E4,1.9040608E3,2.5312865E4,1.0189365E2,1.8021672E3,2.4678314E4,6.3455054E2,9.139055E0,9.275459E1,1.254915E1,1.789618E3,2.26564E4,2.0219137E3,4.1725928E2,2.1729128E2,8.266071E1,1.0093883E1,2.2423969E4,2.324321E2,1.7976659E3,2.2424786E2,2.7689974E1,3.895693E2,1.8496358E2,3.2327705E1],"tree_param":{"num_deleted":"0","num_feature":"31","num_nodes":"25","size_leaf_vector":"1"}},{"base_weights":[-5.051459E-1,4.044941E0,-1.0425762E0,4.1158576E0,-7.351984E-2,-2.766038E-2,-1.0887574E0,3.436322E-1,2.3504272E0,-6.3866293E-1,2.5591211E0,2.2737715E-1,-1.0925142E0,-0E0,2.7514642E-1,2.129632E-1,-5.9241008E-2,2.537122E-1,-4.690671E-2,-9.2088915E-2,-6.64631E-2],"categories":[],"categories_nodes":[],"categories_segments":[],"categories_sizes":[],"default_left":[0,0,0,0,0,0,0,0,0,0,0,0,0,0,0,0,0,0,0,0,0],"id":1,"left_children":[1,3,5,7,-1,9,11,-1,13,15,17,-1,19,-1,-1,-1,-1,-1,-1,-1,-1],"loss_changes":[6.482638E4,1.0198789E3,1.103373E3,2.7E2,0E0,1.6418905E3,3.2946484E2,0E0,2.8310437E2,2.2398694E2,3.5650818E2,0E0,1.7523242E2,0E0,0E0,0E0,0E0,0E0,0E0,0E0,0E0],"parents":[2147483647,0,0,1,1,2,2,3,3,5,5,6,6,8,8,9,9,10,10,12,12],"right_children":[2,4,6,8,-1,10,12,-1,14,16,18,-1,20,-1,-1,-1,-1,-1,-1,-1,-1],"split_conditions":[-3.553008E0,1.0114672E0,-1.631924E0,-1.691945E0,-7.351984E-2,1.2906168E0,-5.616889E0,3.436322E-1,1.2394204E0,-2.5286465E0,5.231367E-1,2.2737715E-1,1.0751415E0,-0E0,2.7514642E-1,2.129632E-1,-5.9241008E-2,2.537122E-1,-4.690671E-2,-9.2088915E-2,-6.64631E-2],"split_indices":[13,9,13,9,0,3,9,0,3,9,9,0,3,0,0,0,0,0,0,0,0],"split_type":[0,0,0,0,0,0,0,0,0,0,0,0,0,0,0,0,0,0,0,0,0],"sum_hessian":[2.6507463E4,2.7958628E3,2.3711602E4,2.758435E3,3.7427856E1,1.0390754E3,2.2672525E4,2.6387375E3,1.196974E2,8.4534845E2,1.9372693E2,1.7171026E1,2.2655354E4,3.790119E1,8.179621E1,1.5940034E1,8.2940845E2,1.6751434E2,2.6212599E1,2.0432541E4,2.222814E3],"tree_param":{"num_deleted":"0","num_feature":"31","num_nodes":"21","size_leaf_vector":"1"}},{"base_weights":[-4.911635E-1,3.0110238E0,-1.0121111E0,-8.482461E-1,3.2052991E0,-1.0794482E0,-3.0746728E-1,8.229171E-2,-1.0310527E0,3.2267728E0,-0E0,-1.0974798E0,-8.3286804E-1,1.1055156E0,-6.827769E-1,-8.734093E-2,-0E0,2.6532874E-1,-0E0,1.0998892E-1,-4.657944E-2,-9.028508E-2,-3.551482E-3,-8.550625E-2,-4.476938E-2,2.3384072E-1,8.893703E-3,3.7185002E-2,-6.905309E-2],"categories":[],"categories_nodes":[],"categories_segments":[],"categories_sizes":[],"default_left":[0,0,0,0,0,0,0,0,0,0,0,0,0,0,0,0,0,0,0,0,0,0,0,0,0,0,0,0,0],"id":2,"left_children":[1,3,5,7,9,11,13,-1,15,17,19,21,23,25,27,-1,-1,-1,-1,-1,-1,-1,-1,-1,-1,-1,-1,-1,-1],"loss_changes":[4.6493105E4,2.5019883E3,1.0414453E3,5.857006E1,2.025039E2,7.223828E1,1.0345751E3,0E0,5.782776E-1,8.549805E1,2.6647419E1,5.5458984E1,7.182312E1,6.8554065E2,2.8415967E2,0E0,0E0,0E0,0E0,0E0,0E0,0E0,0E0,0E0,0E0,0E0,0E0,0E0,0E0],"parents":[2147483647,0,0,1,1,2,2,3,3,4,4,5,5,6,6,8,8,9,9,10,10,11,11,12,12,13,13,14,14],"right_children":[2,4,6,8,10,12,14,-1,16,18,20,22,24,26,28,-1,-1,-1,-1,-1,-1,-1,-1,-1,-1,-1,-1,-1,-1],"split_conditions":[-1.9086164E0,-1.0612925E-1,1.2906168E0,-2.739639E0,2.2184727E1,3.4234612E0,-9.6343964E-2,8.229171E-2,-2.3677115E-1,-1.4758563E-1,-9.911628E-1,5.5630655E0,1.1122548E-1,-2.3754628E-1,-7.8831077E-1,-8.734093E-2,-0E0,2.6532874E-1,-0E0,1.0998892E-1,-4.657944E-2,-9.028508E-2,-3.551482E-3,-8.550625E-2,-4.476938E-2,2.3384072E-1,8.893703E-3,3.7185002E-2,-6.905309E-2],"split_indices":[9,3,3,15,28,28,9,0,3,2,15,20,3,28,2,0,0,0,0,0,0,0,0,0,0,0,0,0,0],"split_type":[0,0,0,0,0,0,0,0,0,0,0,0,0,0,0,0,0,0,0,0,0,0,0,0,0,0,0,0,0],"sum_hessian":[2.5479994E4,3.2949656E3,2.2185027E4,1.5546179E2,3.139504E3,2.0238521E4,1.946506E3,8.731418E0,1.4673038E2,3.117251E3,2.2252863E1,1.8818637E4,1.4198844E3,4.0276596E2,1.54374E3,1.378236E2,8.906776E0,3.1100881E3,7.162759E0,7.175936E0,1.5076927E1,1.8754295E4,6.434188E1,7.9981024E2,6.2007416E2,1.409734E2,2.6179257E2,1.8307721E2,1.3606627E3],"tree_param":{"num_deleted":"0","num_feature":"31","num_nodes":"29","size_leaf_vector":"1"}},{"base_weights":[-4.7703904E-1,2.6746068E0,-1.0017526E0,2.7126172E0,-6.959958E-2,-3.3486467E-3,-1.0510433E0,2.2601089E-1,1.671627E0,2.23671E0,-2.9028708E-1,-1.0544459E0,1.639589E-1,2.0377797E-1,-0E0,2.2634156E-1,-0E0,-4.1283775E-2,9.9235326E-2,-7.1640044E-2,-8.890386E-2],"categories":[],"categories_nodes":[],"categories_segments":[],"categories_sizes":[],"default_left":[0,0,0,0,0,0,0,0,0,0,0,0,0,0,0,0,0,0,0,0,0],"id":3,"left_children":[1,3,5,7,-1,9,11,-1,13,15,17,19,-1,-1,-1,-1,-1,-1,-1,-1,-1],"loss_changes":[4.04274E4,4.9025E2,1.02399023E3,1.0253711E2,0E0,6.297038E2,2.0925E2,0E0,2.1579355E2,1.4933319E2,2.8205573E2,8.816797E1,0E0,0E0,0E0,0E0,0E0,0E0,0E0,0E0,0E0],"parents":[2147483647,0,0,1,1,2,2,3,3,5,5,6,6,8,8,9,9,10,10,11,11],"right_children":[2,4,6,8,-1,10,12,-1,14,16,18,20,-1,-1,-1,-1,-1,-1,-1,-1,-1],"split_conditions":[-3.553008E0,1.0114672E0,-1.631924E0,4.3897054E-1,-6.959958E-2,-2.375053E0,8.149718E0,2.2601089E-1,-1.691945E0,-1.3471249E0,1.9367009E0,-6.820612E-1,1.639589E-1,2.0377797E-1,-0E0,2.2634156E-1,-0E0,-4.1283775E-2,9.9235326E-2,-7.1640044E-2,-8.890386E-2],"split_indices":[13,9,13,6,0,15,1,0,9,9,28,13,0,0,0,0,0,0,0,0,0],"split_type":[0,0,0,0,0,0,0,0,0,0,0,0,0,0,0,0,0,0,0,0,0],"sum_hessian":[2.444279E4,3.4842183E3,2.095857E4,3.4500098E3,3.4208458E1,9.931334E2,1.9965438E4,3.300566E3,1.4944376E2,1.06680145E2,8.864533E2,1.9948291E4,1.714675E1,1.0033182E2,4.911193E1,8.826713E1,1.8413021E1,7.828786E2,1.0357466E2,2.840336E3,1.7107955E4],"tree_param":{"num_deleted":"0","num_feature":"31","num_nodes":"21","size_leaf_vector":"1"}},{"base_weights":[-4.549054E-1,2.0951269E0,-9.4382197E-1,-3.351624E-1,2.2948852E0,-1.0338393E0,-1.1806027E-1,1.9504112E0,-1.0529593E0,1.9352432E-1,1.2637935E0,-1.0875863E0,-9.171197E-1,-5.0620717E-1,1.4551889E0,1.8282892E-1,-0E0,-0E0,-8.880307E-2,1.7261818E-1,-2.9826984E-2,-8.9563675E-2,-5.323599E-2,-3.5421744E-2,-8.3084E-2,1.1976375E-1,-6.4188376E-2,1.8148035E-1,-4.4530116E-2],"categories":[],"categories_nodes":[],"categories_segments":[],"categories_sizes":[],"default_left":[0,0,0,0,0,0,0,0,0,0,0,0,0,0,0,0,0,0,0,0,0,0,0,0,0,0,0,0,0],"id":4,"left_children":[1,3,5,7,9,11,13,15,17,-1,19,21,23,25,27,-1,-1,-1,-1,-1,-1,-1,-1,-1,-1,-1,-1,-1,-1],"loss_changes":[2.9105451E4,1.8401934E3,1.4476855E3,4.7147888E2,1.921211E2,9.213281E1,1.1800852E3,4.332132E1,5.41658E0,0E0,3.166323E2,7.2470703E0,2.497793E2,8.485236E2,5.93675E2,0E0,0E0,0E0,0E0,0E0,0E0,0E0,0E0,0E0,0E0,0E0,0E0,0E0,0E0],"parents":[2147483647,0,0,1,1,2,2,3,3,4,4,5,5,6,6,7,7,8,8,10,10,11,11,12,12,13,13,14,14],"right_children":[2,4,6,8,10,12,14,16,18,-1,20,22,24,26,28,-1,-1,-1,-1,-1,-1,-1,-1,-1,-1,-1,-1,-1,-1],"split_conditions":[-2.7405777E0,6.1761993E-1,1.2394204E0,-1.7910248E0,-5.321466E-1,2.686594E-1,1.2318513E0,-2.612561E-1,-8.3223265E-1,1.9352432E-1,-2.3768602E-1,2.024248E0,-4.2871374E-1,-1.9339242E0,-6.32991E-2,1.8282892E-1,-0E0,-0E0,-8.880307E-2,1.7261818E-1,-2.9826984E-2,-8.9563675E-2,-5.323599E-2,-3.5421744E-2,-8.3084E-2,1.1976375E-1,-6.4188376E-2,1.8148035E-1,-4.4530116E-2],"split_indices":[11,3,3,15,15,3,17,6,19,0,28,6,11,11,28,0,0,0,0,0,0,0,0,0,0,0,0,0,0],"split_type":[0,0,0,0,0,0,0,0,0,0,0,0,0,0,0,0,0,0,0,0,0,0,0,0,0,0,0,0,0],"sum_hessian":[2.3340836E4,3.7505645E3,1.9590271E4,2.81903E2,3.4686614E3,1.7655791E4,1.9344801E3,6.3250763E1,2.1865224E2,3.252944E3,2.1571736E2,1.2022832E4,5.6329595E3,1.5576198E3,3.7686032E2,5.6169094E1,7.0816708E0,7.4270544E0,2.1122519E2,1.4435709E2,7.136026E1,1.1883078E4,1.3975412E2,9.4483215E2,4.6881274E3,1.865003E2,1.3711194E3,2.755757E2,1.0128461E2],"tree_param":{"num_deleted":"0","num_feature":"31","num_nodes":"29","size_leaf_vector":"1"}},{"base_weights":[-4.4037586E-1,2.0173545E0,-9.7554654E-1,1.7663631E-1,6.5294284E-1,1.7375018E-1,-9.875485E-1,-7.045159E-1,1.9992118E0,-3.6454964E-1,-1.0202326E0,3.7956204E-2,-7.598386E-2,1.8415086E-1,-4.1264247E-2,-4.9352366E-2,9.930729E-2,-8.6670205E-2,-5.7823304E-2],"categories":[],"categories_nodes":[],"categories_segments":[],"categories_sizes":[],"default_left":[0,0,0,0,0,0,0,0,0,0,0,0,0,0,0,0,0,0,0],"id":5,"left_children":[1,3,5,-1,7,-1,9,11,13,15,17,-1,-1,-1,-1,-1,-1,-1,-1],"loss_changes":[2.9353633E4,7.146094E2,6.812637E2,0E0,6.9626166E2,0E0,3.603672E2,5.329973E1,1.347182E2,3.452956E2,1.8317383E2,0E0,0E0,0E0,0E0,0E0,0E0,0E0,0E0],"parents":[2147483647,0,0,1,1,2,2,4,4,6,6,7,7,8,8,9,9,10,10],"right_children":[2,4,6,-1,8,-1,10,12,14,16,18,-1,-1,-1,-1,-1,-1,-1,-1],"split_conditions":[-2.7932992E0,-1.6780032E0,-2.4655821E0,1.7663631E-1,1.3497524E0,1.7375018E-1,-1.4537283E0,-4.839904E0,-6.32991E-2,1.421394E0,1.0751415E0,3.7956204E-2,-7.598386E-2,1.8415086E-1,-4.1264247E-2,-4.9352366E-2,9.930729E-2,-8.6670205E-2,-5.7823304E-2],"split_indices":[13,11,16,0,3,0,13,13,28,3,3,0,0,0,0,0,0,0,0],"split_type":[0,0,0,0,0,0,0,0,0,0,0,0,0,0,0,0,0,0,0],"sum_hessian":[2.2312232E4,3.9852383E3,1.8326994E4,3.6167805E3,3.6845782E2,6.56563E1,1.8261338E4,1.8179022E2,1.8666762E2,9.238288E2,1.733751E4,2.310701E1,1.5868321E2,1.7298799E2,1.3679627E1,8.091921E2,1.146367E2,1.55137705E4,1.8237397E3],"tree_param":{"num_deleted":"0","num_feature":"31","num_nodes":"19","size_leaf_vector":"1"}},{"base_weights":[-4.260116E-1,1.8807994E0,-9.496099E-1,1.9623748E0,4.7144175E-1,1.91686E0,-9.661963E-1,1.6118504E-1,-0E0,1.6648668E0,-5.1797605E-1,1.6549982E-1,-0E0,-2.714921E-1,-1.0041871E0,1.6631906E-1,-2.5954423E-2,7.195856E-2,-8.0293134E-2,-3.9339036E-2,8.2008325E-2,-8.414252E-2,-5.27469E-2],"categories":[],"categories_nodes":[],"categories_segments":[],"categories_sizes":[],"default_left":[0,0,0,0,0,0,0,0,0,0,0,0,0,0,0,0,0,0,0,0,0,0,0],"id":6,"left_children":[1,3,5,7,9,11,13,-1,-1,15,17,-1,-1,19,21,-1,-1,-1,-1,-1,-1,-1,-1],"loss_changes":[2.5718637E4,4.3126855E2,8.262129E2,1.1832031E1,2.785255E2,8.710175E0,4.4529297E2,0E0,0E0,9.170584E1,8.3650604E1,0E0,0E0,2.3920596E2,1.1294531E2,0E0,0E0,0E0,0E0,0E0,0E0,0E0,0E0],"parents":[2147483647,0,0,1,1,2,2,3,3,4,4,5,5,6,6,9,9,10,10,13,13,14,14],"right_children":[2,4,6,8,10,12,14,-1,-1,16,18,-1,-1,20,22,-1,-1,-1,-1,-1,-1,-1,-1],"split_conditions":[-3.1759074E0,-1.5107492E0,-2.4655821E0,8.667503E-1,2.5276065E-1,-1.4421558E0,-1.506466E0,1.6118504E-1,-0E0,2.9204535E-1,-8.691778E-1,1.6549982E-1,-0E0,2.0192964E0,1.0537678E0,1.6631906E-1,-2.5954423E-2,7.195856E-2,-8.0293134E-2,-3.9339036E-2,8.2008325E-2,-8.414252E-2,-5.27469E-2],"split_indices":[13,9,16,0,6,9,13,0,0,7,8,0,0,28,6,0,0,0,0,0,0,0,0],"split_type":[0,0,0,0,0,0,0,0,0,0,0,0,0,0,0,0,0,0,0,0,0,0,0],"sum_hessian":[2.1288225E4,3.9335554E3,1.735467E4,3.7119373E3,2.216183E2,9.4577354E1,1.7260092E4,3.704812E3,7.1252556E0,1.0246456E2,1.1915375E2,8.709372E1,7.4836354E0,9.065739E2,1.6353519E4,8.960345E1,1.2861115E1,2.4757895E1,9.439585E1,7.861688E2,1.2040506E2,1.5403327E4,9.50191E2],"tree_param":{"num_deleted":"0","num_feature":"31","num_nodes":"23","size_leaf_vector":"1"}},{"base_weights":[-4.1757834E-1,1.6126817E0,-8.8543457E-1,1.7583802E0,-6.2381124E-1,-9.878672E-1,-4.481441E-2,1.7879869E0,-5.040859E-1,4.5377457E-1,-9.964781E-1,-8.663049E-2,-8.6902297E-1,8.145057E-1,-6.9924533E-1,-1.606896E-2,1.4760865E-1,9.226948E-3,-6.672085E-2,-5.6547318E-2,1.287953E-1,-0E0,-8.548882E-2,-3.6337256E-2,-8.02487E-2,-1.9346038E-2,1.1131825E-1,-3.4092784E-2,-8.3097965E-2],"categories":[],"categories_nodes":[],"categories_segments":[],"categories_sizes":[],"default_left":[0,0,0,0,0,0,0,0,0,0,0,0,0,0,0,0,0,0,0,0,0,0,0,0,0,0,0,0,0],"id":7,"left_children":[1,3,5,7,9,11,13,15,17,19,21,-1,23,25,27,-1,-1,-1,-1,-1,-1,-1,-1,-1,-1,-1,-1,-1,-1],"loss_changes":[1.9171898E4,1.2440332E3,1.40525E3,2.5094336E2,9.864254E1,1.0087891E2,1.0106147E3,9.360742E1,1.4216393E1,8.402381E1,7.687088E0,0E0,2.392461E2,4.499425E2,7.920572E1,0E0,0E0,0E0,0E0,0E0,0E0,0E0,0E0,0E0,0E0,0E0,0E0,0E0,0E0],"parents":[2147483647,0,0,1,1,2,2,3,3,4,4,5,5,6,6,7,7,8,8,9,9,10,10,12,12,13,13,14,14],"right_children":[2,4,6,8,10,12,14,16,18,20,22,-1,24,26,28,-1,-1,-1,-1,-1,-1,-1,-1,-1,-1,-1,-1,-1,-1],"split_conditions":[-2.7405777E0,-3.358108E-1,1.2394204E0,6.7778695E-1,-1.098877E0,1.8625847E-1,-1.6959746E-1,-1.17866985E-1,-4.712987E-1,1.1980826E0,-1.9111096E0,-8.663049E-2,-2.923435E-1,-5.6561086E-2,7.994142E-1,-1.606896E-2,1.4760865E-1,9.226948E-3,-6.672085E-2,-5.6547318E-2,1.287953E-1,-0E0,-8.548882E-2,-3.6337256E-2,-8.02487E-2,-1.9346038E-2,1.1131825E-1,-3.4092784E-2,-8.3097965E-2],"split_indices":[11,2,3,0,18,3,2,3,12,3,17,0,11,26,2,0,0,0,0,0,0,0,0,0,0,0,0,0,0],"split_type":[0,0,0,0,0,0,0,0,0,0,0,0,0,0,0,0,0,0,0,0,0,0,0,0,0,0,0,0,0],"sum_hessian":[2.017875E4,3.774339E3,1.6404412E4,3.5473667E3,2.2697252E2,1.4614285E4,1.7901261E3,3.5055625E3,4.1804134E1,5.311147E1,1.7386104E2,9.222116E3,5.3921694E3,7.6870166E2,1.0214244E3,1.631796E1,3.4892446E3,7.0586686E0,3.4745464E1,2.3837627E1,2.9273842E1,8.211573E0,1.6564948E2,1.1189288E3,4.27324E3,2.58118E2,5.1058368E2,5.5375214E2,4.6767224E2],"tree_param":{"num_deleted":"0","num_feature":"31","num_nodes":"29","size_leaf_vector":"1"}},{"base_weights":[-4.0712896E-1,1.6859576E0,-8.43308E-1,1.4128E-1,-7.001158E-1,-8.8491887E-1,1.3952113E0,-6.862077E-2,-0E0,-9.5052505E-1,1.9125119E-1,1.3245854E-1,-0E0,-8.1784494E-2,-5.3379267E-2,6.481958E-2,-4.4524018E-2,5.957113E-2,-3.4346774E-2],"categories":[],"categories_nodes":[],"categories_segments":[],"categories_sizes":[],"default_left":[0,0,0,0,0,0,0,0,0,0,0,0,0,0,0,0,0,0,0],"id":8,"left_children":[1,3,5,-1,7,9,11,-1,-1,13,15,-1,17,-1,-1,-1,-1,-1,-1],"loss_changes":[1.7457707E4,2.9905762E2,1.4760176E3,0E0,5.445154E0,1.103916E3,9.08277E1,0E0,0E0,1.8992188E2,3.951283E2,0E0,1.3582951E1,0E0,0E0,0E0,0E0,0E0,0E0],"parents":[2147483647,0,0,1,1,2,2,4,4,5,5,6,6,9,9,10,10,12,12],"right_children":[2,4,6,-1,8,10,12,-1,-1,14,16,-1,18,-1,-1,-1,-1,-1,-1],"split_conditions":[-1.8561752E0,-1.3847823E0,2.7976859E0,1.4128E-1,3.143995E0,1.7289717E0,-7.773369E-1,-6.862077E-2,-0E0,7.7159184E-1,-1.6922186E-1,1.3245854E-1,-3.286607E0,-8.1784494E-2,-5.3379267E-2,6.481958E-2,-4.4524018E-2,5.957113E-2,-3.4346774E-2],"split_indices":[16,11,10,0,28,16,8,0,0,16,21,0,11,0,0,0,0,0,0],"split_type":[0,0,0,0,0,0,0,0,0,0,0,0,0,0,0,0,0,0,0],"sum_hessian":[1.9118037E4,3.2920354E3,1.5826002E4,3.2466401E3,4.539517E1,1.5542841E4,2.8316077E2,3.8318058E1,7.077111E0,1.4656538E4,8.863027E2,2.4513928E2,3.802149E1,1.2657438E4,1.9991005E3,4.932934E2,3.9300928E2,1.1281782E1,2.6739706E1],"tree_param":{"num_deleted":"0","num_feature":"31","num_nodes":"19","size_leaf_vector":"1"}},{"base_weights":[-3.964984E-1,1.5009154E0,-8.869378E-1,1.5832784E0,-7.5923127E-1,1.3230129E-1,-9.0246135E-1,1.6024797E0,-5.2773368E-2,-9.554403E-1,5.3702768E-2,-9.8560524E-1,-4.6915004E-1,-4.2694703E-2,1.3243157E-1,-8.1716634E-2,-0E0,-8.171586E-2,-1.3221997E-2,-7.6826945E-2,-1.612154E-3],"categories":[],"categories_nodes":[],"categories_segments":[],"categories_sizes":[],"default_left":[0,0,0,0,0,0,0,0,0,0,0,0,0,0,0,0,0,0,0,0,0],"id":9,"left_children":[1,3,5,7,9,-1,11,13,-1,15,-1,17,19,-1,-1,-1,-1,-1,-1,-1,-1],"loss_changes":[1.6886348E4,7.0446484E2,5.607178E2,1.6510938E2,4.1060493E1,0E0,5.0420508E2,1.0277832E2,0E0,4.3462372E-1,0E0,9.620703E1,4.8275372E2,0E0,0E0,0E0,0E0,0E0,0E0,0E0,0E0],"parents":[2147483647,0,0,1,1,2,2,3,3,4,4,6,6,7,7,9,9,11,11,12,12],"right_children":[2,4,6,8,10,-1,12,14,-1,16,-1,18,20,-1,-1,-1,-1,-1,-1,-1,-1],"split_conditions":[-1.7928886E0,1.0268668E-1,-3.3703735E0,1.1208271E0,2.519362E-1,1.3230129E-1,8.458625E-1,-6.1939883E-1,-5.2773368E-2,-3.3308366E-1,5.3702768E-2,2.024248E0,6.666003E-2,-4.2694703E-2,1.3243157E-1,-8.1716634E-2,-0E0,-8.171586E-2,-1.3221997E-2,-7.6826945E-2,-1.612154E-3],"split_indices":[9,11,16,8,0,0,16,10,0,0,0,6,17,0,0,0,0,0,0,0,0],"split_type":[0,0,0,0,0,0,0,0,0,0,0,0,0,0,0,0,0,0,0,0,0],"sum_hessian":[1.8140893E4,3.721148E3,1.4419745E4,3.5946047E3,1.26543304E2,8.3459694E1,1.4336285E4,3.5682512E3,2.6353409E1,1.1680013E2,9.74317E0,1.2009834E4,2.3264514E3,1.5752688E1,3.5524985E3,1.07531105E2,9.269023E0,1.184751E4,1.6232442E2,1.1303153E3,1.1961361E3],"tree_param":{"num_deleted":"0","num_feature":"31","num_nodes":"21","size_leaf_vector":"1"}},{"base_weights":[-3.823942E-1,1.3226237E0,-8.4207463E-1,1.4588553E0,-6.630946E-1,-6.2638235E-1,-9.405883E-1,1.5142467E0,8.2875663E-1,3.701234E-1,-7.9575986E-2,-7.8671855E-1,-3.9837953E-2,-1.0284863E0,-8.358567E-1,1.24861486E-1,-2.8390714E-3,1.11756556E-1,-0E0,-5.1415067E-2,1.9718976E-1,-7.147645E-2,1.7401984E-2,-4.5701284E-2,4.5437258E-2,-8.480755E-2,-2.4672402E-2,-8.55774E-2,-5.7464257E-2],"categories":[],"categories_nodes":[],"categories_segments":[],"categories_sizes":[],"default_left":[0,0,0,0,0,0,0,0,0,0,0,0,0,0,0,0,0,0,0,0,0,0,0,0,0,0,0,0,0],"id":10,"left_children":[1,3,5,7,9,11,13,15,17,19,-1,21,23,25,27,-1,-1,-1,-1,-1,-1,-1,-1,-1,-1,-1,-1,-1,-1],"loss_changes":[1.3452859E4,9.952637E2,2.735879E2,9.697217E1,7.986763E1,3.960144E2,6.811377E1,4.959619E1,1.3160793E2,1.2276925E2,0E0,2.8872046E2,2.876005E2,8.740234E0,1.0452002E2,0E0,0E0,0E0,0E0,0E0,0E0,0E0,0E0,0E0,0E0,0E0,0E0,0E0,0E0],"parents":[2147483647,0,0,1,1,2,2,3,3,4,4,5,5,6,6,7,7,8,8,9,9,11,11,12,12,13,13,14,14],"right_children":[2,4,6,8,10,12,14,16,18,20,-1,22,24,26,28,-1,-1,-1,-1,-1,-1,-1,-1,-1,-1,-1,-1,-1,-1],"split_conditions":[-2.5275154E0,-2.6003463E-2,-2.5170597E-1,-5.475714E-1,-2.4620974E-1,6.040871E-1,6.666003E-2,1.4825169E0,-1.4336704E0,-2.6982462E-1,-7.9575986E-2,5.3098583E0,1.2492434E-1,2.024248E0,-4.6793886E-2,1.24861486E-1,-2.8390714E-3,1.11756556E-1,-0E0,-5.1415067E-2,1.9718976E-1,-7.147645E-2,1.7401984E-2,-4.5701284E-2,4.5437258E-2,-8.480755E-2,-2.4672402E-2,-8.55774E-2,-5.7464257E-2],"split_indices":[11,2,11,6,28,1,17,23,2,28,0,28,24,6,27,0,0,0,0,0,0,0,0,0,0,0,0,0,0],"split_type":[0,0,0,0,0,0,0,0,0,0,0,0,0,0,0,0,0,0,0,0,0,0,0,0,0,0,0,0,0],"sum_hessian":[1.7158725E4,3.6387034E3,1.35200205E4,3.4095374E3,2.2916595E2,4.271603E3,9.248417E3,3.1180916E3,2.914457E2,4.6916325E1,1.8224963E2,3.3438088E3,9.277942E2,4.97074E3,4.2776772E3,3.1068005E3,1.1291235E1,1.7609299E2,1.153527E2,3.104639E1,1.5869934E1,3.0896482E3,2.5416081E2,5.0245502E2,4.2533917E2,4.9222837E3,4.8456482E1,1.6563394E3,2.6213376E3],"tree_param":{"num_deleted":"0","num_feature":"31","num_nodes":"29","size_leaf_vector":"1"}},{"base_weights":[-3.6950058E-1,1.3909303E0,-8.720027E-1,1.4849639E0,3.304233E-1,-5.462683E-2,-9.263831E-1,-0E0,1.4893223E0,-2.8683102E-1,9.8701656E-1,-3.330369E-1,1.1666663E0,-6.433056E-1,-9.6891576E-1,-0E0,1.2230228E-1,8.772879E-2,-5.039239E-2,1.0389011E-1,-4.9933635E-2,7.712282E-2,-4.854571E-2,2.080186E-1,-7.355472E-3,-1.7512962E-2,-7.437194E-2,-8.181192E-2,-4.8325647E-2],"categories":[],"categories_nodes":[],"categories_segments":[],"categories_sizes":[],"default_left":[0,0,0,0,0,0,0,0,0,0,0,0,0,0,0,0,0,0,0,0,0,0,0,0,0,0,0,0,0],"id":11,"left_children":[1,3,5,7,9,11,13,-1,15,17,19,21,23,25,27,-1,-1,-1,-1,-1,-1,-1,-1,-1,-1,-1,-1,-1,-1],"loss_changes":[1.4389506E4,3.4485303E2,5.553799E2,2.7230469E1,1.3012761E2,2.6843896E2,1.2855176E2,0E0,5.283203E-1,6.83835E1,7.700391E1,2.1780014E2,2.682025E2,1.7041028E2,9.729785E1,0E0,0E0,0E0,0E0,0E0,0E0,0E0,0E0,0E0,0E0,0E0,0E0,0E0,0E0],"parents":[2147483647,0,0,1,1,2,2,3,3,4,4,5,5,6,6,8,8,9,9,10,10,11,11,12,12,13,13,14,14],"right_children":[2,4,6,8,10,12,14,-1,16,18,20,22,24,26,28,-1,-1,-1,-1,-1,-1,-1,-1,-1,-1,-1,-1,-1,-1],"split_conditions":[-2.7932992E0,-1.691945E0,-1.4537283E0,2.5498423E-1,-1.7962222E-1,1.8302243E0,-6.820612E-1,-0E0,-2.6844997E0,-1.7141383E0,5.231367E-1,-1.2885908E0,-1.0396081E0,-2.1032256E-1,3.9422903E0,-0E0,1.2230228E-1,8.772879E-2,-5.039239E-2,1.0389011E-1,-4.9933635E-2,7.712282E-2,-4.854571E-2,2.080186E-1,-7.355472E-3,-1.7512962E-2,-7.437194E-2,-8.181192E-2,-4.8325647E-2],"split_indices":[13,9,13,10,25,28,13,0,23,17,9,18,9,12,28,0,0,0,0,0,0,0,0,0,0,0,0,0,0],"split_type":[0,0,0,0,0,0,0,0,0,0,0,0,0,0,0,0,0,0,0,0,0,0,0,0,0,0,0,0,0],"sum_hessian":[1.626061E4,3.6059617E3,1.2654648E4,3.3044739E3,3.0148767E2,7.9820575E2,1.1856443E4,7.0596323E0,3.2974143E3,1.509469E2,1.5054077E2,6.5731964E2,1.4088612E2,1.5797407E3,1.0276702E4,7.345261E0,3.290069E3,2.3225962E1,1.2772093E2,1.3268567E2,1.7855099E1,1.0446067E2,5.5285895E2,6.811895E1,7.276717E1,6.1355334E2,9.661874E2,9.535609E3,7.4109283E2],"tree_param":{"num_deleted":"0","num_feature":"31","num_nodes":"29","size_leaf_vector":"1"}},{"base_weights":[-3.6362368E-1,1.3302685E0,-8.5347754E-1,1.424642E0,2.7694932E-1,-6.512495E-2,-9.081464E-1,1.170537E-1,-0E0,1.1247189E0,-5.992188E-1,2.0545213E-1,-8.1399E-1,-6.189221E-1,-9.5240295E-1,1.1423773E-1,-3.2206178E-2,5.8534713E-3,-8.258161E-2,5.8671836E-2,-5.527273E-2,4.0311057E-2,-7.845068E-2,-6.699981E-2,-1.1167068E-2,-8.0660544E-2,-3.707874E-2],"categories":[],"categories_nodes":[],"categories_segments":[],"categories_sizes":[],"default_left":[0,0,0,0,0,0,0,0,0,0,0,0,0,0,0,0,0,0,0,0,0,0,0,0,0,0,0],"id":12,"left_children":[1,3,5,7,9,11,13,-1,-1,15,17,19,21,23,25,-1,-1,-1,-1,-1,-1,-1,-1,-1,-1,-1,-1],"loss_changes":[1.2758371E4,3.2871973E2,5.0695215E2,5.5429688E0,2.2569623E2,1.6452426E2,1.2889258E2,0E0,0E0,7.276347E1,4.629789E1,2.5975516E2,4.5630432E1,1.3722638E2,1.3711523E2,0E0,0E0,0E0,0E0,0E0,0E0,0E0,0E0,0E0,0E0,0E0,0E0],"parents":[2147483647,0,0,1,1,2,2,3,3,4,4,5,5,6,6,9,9,10,10,11,11,12,12,13,13,14,14],"right_children":[2,4,6,8,10,12,14,-1,-1,16,18,20,22,24,26,-1,-1,-1,-1,-1,-1,-1,-1,-1,-1,-1,-1],"split_conditions":[-2.7932992E0,-1.5882722E0,-1.4537283E0,1.7583271E0,-1.1032605E-1,4.9243852E-1,-6.820612E-1,1.170537E-1,-0E0,9.017029E-1,3.1782195E-1,9.922015E-2,-2.4449763E0,3.2579443E-1,1.0537678E0,1.1423773E-1,-3.2206178E-2,5.8534713E-3,-8.258161E-2,5.8671836E-2,-5.527273E-2,4.0311057E-2,-7.845068E-2,-6.699981E-2,-1.1167068E-2,-8.0660544E-2,-3.707874E-2],"split_indices":[13,9,13,6,19,25,13,0,0,6,6,26,11,14,6,0,0,0,0,0,0,0,0,0,0,0,0],"split_type":[0,0,0,0,0,0,0,0,0,0,0,0,0,0,0,0,0,0,0,0,0,0,0,0,0,0,0],"sum_hessian":[1.5370211E4,3.4428987E3,1.1927312E4,3.1521467E3,2.907521E2,7.8263074E2,1.1144681E4,3.1442341E3,7.9124455E0,1.5135518E2,1.3939693E2,5.700577E2,2.125731E2,1.5090026E3,9.635679E3,1.3297198E2,1.838319E1,4.730475E1,9.209217E1,3.6652896E2,2.035287E2,1.4915106E1,1.9765799E2,1.0576156E3,4.5138702E2,9.056784E3,5.7889435E2],"tree_param":{"num_deleted":"0","num_feature":"31","num_nodes":"27","size_leaf_vector":"1"}},{"base_weights":[-3.531308E-1,1.3411655E0,-8.1440985E-1,1.3605381E0,-5.7257567E-2,-9.121207E-1,-9.538269E-2,1.3665508E0,-0E0,-5.773941E-1,-9.9479574E-1,-5.943518E-1,5.2008575E-1,1.1380916E-1,6.1285876E-2,-8.083264E-2,-1.7083097E-2,-8.421175E-2,-4.572747E-2,-4.627355E-3,-6.3652255E-2,9.582053E-2,-2.7284123E-2],"categories":[],"categories_nodes":[],"categories_segments":[],"categories_sizes":[],"default_left":[0,0,0,0,0,0,0,0,0,0,0,0,0,0,0,0,0,0,0,0,0,0,0],"id":13,"left_children":[1,3,5,7,-1,9,11,13,-1,15,17,19,21,-1,-1,-1,-1,-1,-1,-1,-1,-1,-1],"loss_changes":[1.1367932E4,1.3164844E2,7.9595996E2,3.3273926E1,0E0,2.6464648E2,4.26216E2,2.0157227E1,0E0,2.9478235E2,9.825879E1,6.92095E1,3.4725146E2,0E0,0E0,0E0,0E0,0E0,0E0,0E0,0E0,0E0,0E0],"parents":[2147483647,0,0,1,1,2,2,3,3,5,5,6,6,7,7,9,9,10,10,11,11,12,12],"right_children":[2,4,6,8,-1,10,12,14,-1,16,18,20,22,-1,-1,-1,-1,-1,-1,-1,-1,-1,-1],"split_conditions":[-3.553008E0,1.0114672E0,1.1633558E0,9.654595E-1,-5.7257567E-2,-6.820612E-1,2.036209E-1,-4.0593934E0,-0E0,-2.3677115E-1,3.7754488E0,-2.0121568E-1,4.0446535E-2,1.1380916E-1,6.1285876E-2,-8.083264E-2,-1.7083097E-2,-8.421175E-2,-4.572747E-2,-4.627355E-3,-6.3652255E-2,9.582053E-2,-2.7284123E-2],"split_indices":[13,9,3,0,0,13,10,13,0,3,28,28,13,0,0,0,0,0,0,0,0,0,0],"split_type":[0,0,0,0,0,0,0,0,0,0,0,0,0,0,0,0,0,0,0,0,0,0,0],"sum_hessian":[1.45403125E4,3.1064724E3,1.143384E4,3.082127E3,2.4345451E1,1.0056117E4,1.3777235E3,3.072846E3,9.281046E0,2.0157457E3,8.040371E3,7.6743115E2,6.1029236E2,2.9560503E3,1.1679572E2,9.4476166E2,1.0709841E3,7.4736787E3,5.666925E2,2.0515344E2,5.622777E2,3.5067932E2,2.59613E2],"tree_param":{"num_deleted":"0","num_feature":"31","num_nodes":"23","size_leaf_vector":"1"}},{"base_weights":[-3.421161E-1,1.2313696E0,-7.888314E-1,-8.244311E-1,1.3045573E0,-8.949505E-1,-8.211032E-3,-7.69197E-2,-0E0,1.3217391E0,-3.991999E-1,-9.5992774E-1,-5.952353E-1,-5.4391223E-1,5.744775E-1,-8.069312E-3,1.08930945E-1,-4.4609733E-2,-0E0,-8.167012E-2,-4.216632E-2,-2.0394519E-2,-8.633236E-2,-6.7274612E-3,-7.972086E-2,8.536824E-2,-3.703402E-2],"categories":[],"categories_nodes":[],"categories_segments":[],"categories_sizes":[],"default_left":[0,0,0,0,0,0,0,0,0,0,0,0,0,0,0,0,0,0,0,0,0,0,0,0,0,0,0],"id":14,"left_children":[1,3,5,7,9,11,13,-1,-1,15,17,19,21,23,25,-1,-1,-1,-1,-1,-1,-1,-1,-1,-1,-1,-1],"loss_changes":[9.656612E3,4.6471338E2,8.802822E2,1.1101784E1,9.482764E1,1.6975488E2,4.0486224E2,0E0,0E0,3.5401855E1,1.79175E0,1.0986182E2,2.60292E2,1.2698929E2,3.0051868E2,0E0,0E0,0E0,0E0,0E0,0E0,0E0,0E0,0E0,0E0,0E0,0E0],"parents":[2147483647,0,0,1,1,2,2,3,3,4,4,5,5,6,6,9,9,10,10,11,11,12,12,13,13,14,14],"right_children":[2,4,6,8,10,12,14,-1,-1,16,18,20,22,24,26,-1,-1,-1,-1,-1,-1,-1,-1,-1,-1,-1,-1],"split_conditions":[-1.7928886E0,-2.5948417E-1,1.2394204E0,-3.8567963E-1,3.1622878E-1,7.539481E-1,1.672743E-1,-7.69197E-2,-0E0,-6.687242E-1,-5.7953125E-1,3.4234612E0,1.3620083E-1,8.024341E-2,2.1402049E-1,-8.069312E-3,1.08930945E-1,-4.4609733E-2,-0E0,-8.167012E-2,-4.216632E-2,-2.0394519E-2,-8.633236E-2,-6.7274612E-3,-7.972086E-2,8.536824E-2,-3.703402E-2],"split_indices":[9,3,3,3,11,16,10,0,0,10,2,28,7,7,7,0,0,0,0,0,0,0,0,0,0,0,0],"split_type":[0,0,0,0,0,0,0,0,0,0,0,0,0,0,0,0,0,0,0,0,0,0,0,0,0,0,0],"sum_hessian":[1.3732811E4,3.0314558E3,1.07013545E4,9.934209E1,2.9321138E3,9.412005E3,1.2893496E3,8.8455246E1,1.0886834E1,2.907965E3,2.4148678E1,7.7076875E3,1.7043176E3,6.78361E2,6.1098865E2,7.472817E0,2.9004922E3,1.7136688E1,7.0119896E0,7.1158457E3,5.918417E2,9.82146E2,7.221717E2,3.3677448E2,3.4158652E2,4.2487183E2,1.8611682E2],"tree_param":{"num_deleted":"0","num_feature":"31","num_nodes":"27","size_leaf_vector":"1"}},{"base_weights":[-3.40787E-1,1.1942734E0,-7.8007996E-1,-5.550896E-1,1.2750362E0,-8.842071E-1,-5.1040523E-2,6.387085E-2,-8.4139687E-1,-0E0,1.2926507E0,-9.565421E-1,-5.786825E-1,-5.27545E-1,5.109543E-1,-7.825791E-2,-0E0,7.085602E-2,-3.4329988E-2,1.06419444E-1,-0E0,-8.1270374E-2,-3.7423328E-2,-7.166656E-2,-1.9925673E-2,3.5888643E-3,-6.307238E-2,8.095646E-2,-2.1547502E-2],"categories":[],"categories_nodes":[],"categories_segments":[],"categories_sizes":[],"default_left":[0,0,0,0,0,0,0,0,0,0,0,0,0,0,0,0,0,0,0,0,0,0,0,0,0,0,0,0,0],"id":15,"left_children":[1,3,5,7,9,11,13,-1,15,17,19,21,23,25,27,-1,-1,-1,-1,-1,-1,-1,-1,-1,-1,-1,-1,-1,-1],"loss_changes":[8.741067E3,4.1531738E2,7.585171E2,5.136865E1,6.3902344E1,1.8139307E2,3.4223245E2,0E0,9.263641E0,1.55499115E1,1.2941406E1,1.09368164E2,1.6114124E2,1.0164819E2,2.1969894E2,0E0,0E0,0E0,0E0,0E0,0E0,0E0,0E0,0E0,0E0,0E0,0E0,0E0,0E0],"parents":[2147483647,0,0,1,1,2,2,3,3,4,4,5,5,6,6,8,8,9,9,10,10,11,11,12,12,13,13,14,14],"right_children":[2,4,6,8,10,12,14,-1,16,18,20,22,24,26,28,-1,-1,-1,-1,-1,-1,-1,-1,-1,-1,-1,-1,-1,-1],"split_conditions":[-1.7928886E0,2.6919473E-2,1.2394204E0,-2.4655821E0,2.9313165E-1,7.181492E-1,2.6741087E-1,6.387085E-2,-2.8478914E-1,-8.2912225E-1,2.2184727E1,3.9422903E0,7.48699E-2,-2.0275274E-1,5.0834036E-1,-7.825791E-2,-0E0,7.085602E-2,-3.4329988E-2,1.06419444E-1,-0E0,-8.1270374E-2,-3.7423328E-2,-7.166656E-2,-1.9925673E-2,3.5888643E-3,-6.307238E-2,8.095646E-2,-2.1547502E-2],"split_indices":[9,3,3,16,10,16,10,0,0,16,28,28,4,28,9,0,0,0,0,0,0,0,0,0,0,0,0,0,0],"split_type":[0,0,0,0,0,0,0,0,0,0,0,0,0,0,0,0,0,0,0,0,0,0,0,0,0,0,0,0,0],"sum_hessian":[1.2956841E4,2.877634E3,1.0079207E4,1.21958145E2,2.7556758E3,8.810085E3,1.2691211E3,1.5823187E1,1.0613496E2,3.6459957E1,2.7192158E3,7.0972144E3,1.7128711E3,6.938899E2,5.7523126E2,9.179214E1,1.4342825E1,9.287864E0,2.7172092E1,2.7069958E3,1.2220062E1,6.625037E3,4.7217712E2,8.9671356E2,8.161576E2,1.9824124E2,4.9564865E2,3.611792E2,2.1405203E2],"tree_param":{"num_deleted":"0","num_feature":"31","num_nodes":"29","size_leaf_vector":"1"}},{"base_weights":[-3.288711E-1,1.1367221E0,-7.6151633E-1,-5.6437474E-1,1.2359942E0,-8.729409E-1,-6.4891614E-2,2.6595944E-1,-7.5456336E-2,1.2500409E0,-1.3633604E-1,-9.8598886E-1,-7.2359174E-1,3.933914E-1,-6.844454E-1,7.04031E-2,-3.2576688E-2,-0E0,1.03006646E-1,-3.596532E-2,-0E0,-6.2600315E-2,-8.225963E-2,3.5392154E-2,-6.395463E-2,8.5094556E-2,-1.1396107E-2,-6.436366E-2,3.1692468E-2],"categories":[],"categories_nodes":[],"categories_segments":[],"categories_sizes":[],"default_left":[0,0,0,0,0,0,0,0,0,0,0,0,0,0,0,0,0,0,0,0,0,0,0,0,0,0,0,0,0],"id":16,"left_children":[1,3,5,7,9,11,13,15,-1,17,19,21,23,25,27,-1,-1,-1,-1,-1,-1,-1,-1,-1,-1,-1,-1,-1,-1],"loss_changes":[7.7755776E3,4.7933862E2,7.282969E2,5.086845E1,5.9718994E1,1.2239551E2,3.7794043E2,2.1642004E1,0E0,2.4557617E1,2.9881785E0,1.3486328E0,2.3448083E2,2.6577832E2,6.525879E1,0E0,0E0,0E0,0E0,0E0,0E0,0E0,0E0,0E0,0E0,0E0,0E0,0E0,0E0],"parents":[2147483647,0,0,1,1,2,2,3,3,4,4,5,5,6,6,7,7,9,9,10,10,11,11,12,12,13,13,14,14],"right_children":[2,4,6,8,10,12,14,16,-1,18,20,22,24,26,28,-1,-1,-1,-1,-1,-1,-1,-1,-1,-1,-1,-1,-1,-1],"split_conditions":[-1.691945E0,2.6919473E-2,1.1633558E0,-1.3137902E0,2.8554326E-1,6.415501E-2,1.1636925E-1,-1.4717287E-1,-7.5456336E-2,-4.4944364E-1,-1.5910096E-1,-1.1094975E0,-6.3007826E-1,2.941886E-1,1.7776504E0,7.04031E-2,-3.2576688E-2,-0E0,1.03006646E-1,-3.596532E-2,-0E0,-6.2600315E-2,-8.225963E-2,3.5392154E-2,-6.395463E-2,8.5094556E-2,-1.1396107E-2,-6.436366E-2,3.1692468E-2],"split_indices":[9,3,3,2,11,3,7,11,0,10,8,9,7,9,10,0,0,0,0,0,0,0,0,0,0,0,0,0,0],"split_type":[0,0,0,0,0,0,0,0,0,0,0,0,0,0,0,0,0,0,0,0,0,0,0,0,0,0,0,0,0],"sum_hessian":[1.2257099E4,2.7882725E3,9.468826E3,1.4865245E2,2.63962E3,8.153289E3,1.315537E3,3.879601E1,1.09856445E2,2.6184531E3,2.1166866E1,4.5997534E3,3.5535354E3,7.503668E2,5.6517017E2,2.5591166E1,1.3204842E1,8.40601E0,2.610047E3,1.3805446E1,7.3614197E0,3.6753885E2,4.232215E3,1.5734825E2,3.3961873E3,3.4389612E2,4.064707E2,5.239833E2,4.118691E1],"tree_param":{"num_deleted":"0","num_feature":"31","num_nodes":"29","size_leaf_vector":"1"}},{"base_weights":[-3.3009875E-1,1.1913881E0,-7.5197524E-1,1.2475406E0,2.388582E-1,-8.614191E-1,-1.2635554E-1,1.0262577E-1,-0E0,8.910001E-1,-6.924883E-1,-4.898243E-1,-9.5999825E-1,6.976026E-1,-3.840729E-1,9.1709495E-2,-1.1211069E-3,-7.9921514E-2,-0E0,-6.955753E-2,-2.54794E-3,-8.054956E-2,-0E0,7.523012E-2,-5.1909685E-2,1.0273197E-2,-6.17145E-2],"categories":[],"categories_nodes":[],"categories_segments":[],"categories_sizes":[],"default_left":[0,0,0,0,0,0,0,0,0,0,0,0,0,0,0,0,0,0,0,0,0,0,0,0,0,0,0],"id":17,"left_children":[1,3,5,7,9,11,13,-1,-1,15,17,19,21,23,25,-1,-1,-1,-1,-1,-1,-1,-1,-1,-1,-1,-1],"loss_changes":[7.4118804E3,1.2197363E2,6.1179395E2,7.463867E0,9.619156E1,2.6920703E2,2.8799084E2,0E0,0E0,2.76866E1,1.6097902E1,2.623585E2,1.3374414E2,9.7732605E1,2.0124545E2,0E0,0E0,0E0,0E0,0E0,0E0,0E0,0E0,0E0,0E0,0E0,0E0],"parents":[2147483647,0,0,1,1,2,2,3,3,4,4,5,5,6,6,9,9,10,10,11,11,12,12,13,13,14,14],"right_children":[2,4,6,8,10,12,14,-1,-1,16,18,20,22,24,26,-1,-1,-1,-1,-1,-1,-1,-1,-1,-1,-1,-1],"split_conditions":[-3.553008E0,4.3897054E-1,1.1021835E0,1.677921E-1,-1.450811E0,-6.6517305E-1,-1.23734E0,1.0262577E-1,-0E0,-1.691945E0,2.4915023E0,2.6919473E-2,1.5998366E0,5.231367E-1,-3.0326506E-1,9.1709495E-2,-1.1211069E-3,-7.9921514E-2,-0E0,-6.955753E-2,-2.54794E-3,-8.054956E-2,-0E0,7.523012E-2,-5.1909685E-2,1.0273197E-2,-6.17145E-2],"split_indices":[13,6,3,11,11,13,13,0,0,9,3,3,6,9,11,0,0,0,0,0,0,0,0,0,0,0,0],"split_type":[0,0,0,0,0,0,0,0,0,0,0,0,0,0,0,0,0,0,0,0,0,0,0,0,0,0,0],"sum_hessian":[1.154206E4,2.5002424E3,9.041816E3,2.3526726E3,1.4756976E2,7.684411E3,1.3574056E3,2.343857E3,8.815862E0,9.14613E1,5.6108456E1,1.6317533E3,6.0526577E3,3.150335E2,1.0423721E3,7.8700905E1,1.2760403E1,4.3224674E1,1.28837805E1,9.0549384E2,7.262595E2,5.922843E3,1.2981476E2,2.761845E2,3.8849007E1,4.3038275E2,6.119893E2],"tree_param":{"num_deleted":"0","num_feature":"31","num_nodes":"27","size_leaf_vector":"1"}},{"base_weights":[-3.094034E-1,9.689546E-1,-7.8364414E-1,1.2014662E0,1.8270199E-1,-9.2224985E-1,-4.5374832E-1,-0E0,1.2063668E0,-3.2832563E-1,9.892934E-1,-6.647919E-1,-9.774018E-1,2.097539E-1,-7.8040624E-1,-0E0,9.912041E-2,9.390109E-3,-7.1241885E-2,-1.9955797E-2,1.0762037E-1,-7.4948594E-2,-2.3802169E-2,-4.026381E-2,-8.105784E-2,1.233046E-1,-1.9124081E-2,-6.5910004E-2,4.4341896E-2],"categories":[],"categories_nodes":[],"categories_segments":[],"categories_sizes":[],"default_left":[0,0,0,0,0,0,0,0,0,0,0,0,0,0,0,0,0,0,0,0,0,0,0,0,0,0,0,0,0],"id":18,"left_children":[1,3,5,7,9,11,13,-1,15,17,19,21,23,25,27,-1,-1,-1,-1,-1,-1,-1,-1,-1,-1,-1,-1,-1,-1],"loss_changes":[6.6343086E3,5.298618E2,3.534873E2,1.6625E1,2.893688E2,6.499512E1,5.22027E2,0E0,9.328613E-1,1.0592393E2,1.1766852E2,8.5771545E1,1.138623E1,4.5938098E2,5.2825317E1,0E0,0E0,0E0,0E0,0E0,0E0,0E0,0E0,0E0,0E0,0E0,0E0,0E0,0E0],"parents":[2147483647,0,0,1,1,2,2,3,3,4,4,5,5,6,6,8,8,9,9,10,10,11,11,12,12,13,13,14,14],"right_children":[2,4,6,8,10,12,14,-1,16,18,20,22,24,26,28,-1,-1,-1,-1,-1,-1,-1,-1,-1,-1,-1,-1,-1,-1],"split_conditions":[-1.8026664E0,-1.7629585E0,5.2030545E-1,2.4241468E-1,1.3497524E0,-6.6517305E-1,-2.923435E-1,-0E0,-2.2529541E-1,-2.7087146E-1,-2.1576855E-2,-1.8915877E-1,-1.0351828E0,-2.6859027E-1,1.881098E0,-0E0,9.912041E-2,9.390109E-3,-7.1241885E-2,-1.9955797E-2,1.0762037E-1,-7.4948594E-2,-2.3802169E-2,-4.026381E-2,-8.105784E-2,1.233046E-1,-1.9124081E-2,-6.5910004E-2,4.4341896E-2],"split_indices":[13,11,3,10,3,13,11,0,3,25,0,3,19,13,10,0,0,0,0,0,0,0,0,0,0,0,0,0,0],"split_type":[0,0,0,0,0,0,0,0,0,0,0,0,0,0,0,0,0,0,0,0,0,0,0,0,0,0,0,0,0],"sum_hessian":[1.093597E4,2.9538936E3,7.982076E3,2.2709346E3,6.829589E2,5.59988E3,2.3821963E3,7.0231137E0,2.2639114E3,4.141196E2,2.6883932E2,1.0206988E3,4.579181E3,7.790989E2,1.6030974E3,7.0475173E0,2.2568638E3,2.2204669E2,1.9207292E2,5.1358925E1,2.174804E2,5.980078E2,4.22691E2,1.1824186E2,4.4609395E3,2.0032428E2,5.787746E2,1.5824971E3,2.060042E1],"tree_param":{"num_deleted":"0","num_feature":"31","num_nodes":"29","size_leaf_vector":"1"}},{"base_weights":[-3.068594E-1,9.519269E-1,-7.659915E-1,1.1717563E0,2.0228904E-1,-9.151481E-1,-4.3738016E-1,9.837583E-2,2.0908034E-1,-2.182122E-1,8.887605E-1,-9.2832583E-1,-0E0,3.8179535E-1,-5.9632456E-1,-4.0110916E-2,4.5452338E-2,3.5439517E-2,-7.552336E-2,-0E0,1.04333855E-1,-5.5314075E-2,-8.097035E-2,-5.6498297E-2,1.025807E-1,-3.5377868E-2,1.1820938E-1,-5.6697235E-2,2.6422137E-2],"categories":[],"categories_nodes":[],"categories_segments":[],"categories_sizes":[],"default_left":[0,0,0,0,0,0,0,0,0,0,0,0,0,0,0,0,0,0,0,0,0,0,0,0,0,0,0,0,0],"id":19,"left_children":[1,3,5,7,9,11,13,-1,15,17,19,21,23,25,27,-1,-1,-1,-1,-1,-1,-1,-1,-1,-1,-1,-1,-1,-1],"loss_changes":[5.9789995E3,4.441997E2,3.603169E2,4.5263184E1,1.9003468E2,6.413867E1,3.1382346E2,0E0,1.8855299E1,1.847042E2,9.163138E1,6.1780273E1,7.020126E1,3.4040866E2,1.789107E2,0E0,0E0,0E0,0E0,0E0,0E0,0E0,0E0,0E0,0E0,0E0,0E0,0E0,0E0],"parents":[2147483647,0,0,1,1,2,2,3,3,4,4,5,5,6,6,8,8,9,9,10,10,11,11,12,12,13,13,14,14],"right_children":[2,4,6,8,10,12,14,-1,16,18,20,22,24,26,28,-1,-1,-1,-1,-1,-1,-1,-1,-1,-1,-1,-1,-1,-1],"split_conditions":[-1.9114001E0,-4.0593934E0,4.9641114E-1,9.455863E-1,1.421394E0,2.024248E0,-7.844864E-1,9.837583E-2,-2.6254004E-1,6.0263336E-1,-3.8027918E-1,-6.4968896E-1,-8.131801E-3,1.420212E-1,1.0238565E0,-4.0110916E-2,4.5452338E-2,3.5439517E-2,-7.552336E-2,-0E0,1.04333855E-1,-5.5314075E-2,-8.097035E-2,-5.6498297E-2,1.025807E-1,-3.5377868E-2,1.1820938E-1,-5.6697235E-2,2.6422137E-2],"split_indices":[13,13,3,6,3,6,13,0,29,15,20,13,8,14,6,0,0,0,0,0,0,0,0,0,0,0,0,0,0],"split_type":[0,0,0,0,0,0,0,0,0,0,0,0,0,0,0,0,0,0,0,0,0,0,0,0,0,0,0,0,0],"sum_hessian":[1.0338048E4,2.7575496E3,7.5804985E3,2.122996E3,6.3455347E2,5.1936523E3,2.3868462E3,2.0555703E3,6.742566E1,3.8875757E2,2.4579591E2,5.1215557E3,7.209639E1,3.7952612E2,2.00732E3,1.480312E1,5.262254E1,1.9738708E2,1.9137048E2,7.130295E1,1.7449297E2,9.959499E2,4.125606E3,4.689622E1,2.5200172E1,2.1226729E2,1.6725883E2,1.8274102E3,1.7990984E2],"tree_param":{"num_deleted":"0","num_feature":"31","num_nodes":"29","size_leaf_vector":"1"}},{"base_weights":[-3.003539E-1,1.0653944E0,-6.868136E-1,-7.000836E-1,1.129489E0,-8.0260813E-1,-2.875209E-2,-6.871424E-2,-0E0,1.1450874E0,-3.273716E-2,-8.934614E-1,-4.3484393E-1,3.6607322E-1,-6.1037475E-1,-1.9879647E-2,9.4864674E-2,-7.725882E-2,-2.8791469E-2,-3.9524226E-3,-8.412449E-2,-1.9022977E-2,7.398714E-2,-7.199861E-2,-0E0],"categories":[],"categories_nodes":[],"categories_segments":[],"categories_sizes":[],"default_left":[0,0,0,0,0,0,0,0,0,0,0,0,0,0,0,0,0,0,0,0,0,0,0,0,0],"id":20,"left_children":[1,3,5,7,9,11,13,-1,-1,15,-1,17,19,21,23,-1,-1,-1,-1,-1,-1,-1,-1,-1,-1],"loss_changes":[5.1652056E3,2.5035547E2,5.7560693E2,1.0722481E1,5.7033936E1,2.0536816E2,2.6815536E2,0E0,0E0,4.0654297E1,0E0,1.2532324E2,2.9082086E2,2.2485327E2,8.339511E1,0E0,0E0,0E0,0E0,0E0,0E0,0E0,0E0,0E0,0E0],"parents":[2147483647,0,0,1,1,2,2,3,3,4,4,5,5,6,6,9,9,11,11,12,12,13,13,14,14],"right_children":[2,4,6,8,10,12,14,-1,-1,16,-1,18,20,22,24,-1,-1,-1,-1,-1,-1,-1,-1,-1,-1],"split_conditions":[-1.7928886E0,-2.5948417E-1,1.2394204E0,1.7776504E0,3.297959E0,7.539481E-1,1.1252869E-1,-6.871424E-2,-0E0,-6.1939883E-1,-3.273716E-2,3.4234612E0,1.3620083E-1,-5.809221E-2,5.239251E-1,-1.9879647E-2,9.4864674E-2,-7.725882E-2,-2.8791469E-2,-3.9524226E-3,-8.412449E-2,-1.9022977E-2,7.398714E-2,-7.199861E-2,-0E0],"split_indices":[9,3,3,10,6,16,7,0,0,10,0,28,7,16,0,0,0,0,0,0,0,0,0,0,0],"split_type":[0,0,0,0,0,0,0,0,0,0,0,0,0,0,0,0,0,0,0,0,0,0,0,0,0],"sum_hessian":[9.781352E3,2.1515903E3,7.6297617E3,6.9973045E1,2.0816174E3,6.477984E3,1.1517778E3,6.2884243E1,7.088801E0,2.0663064E3,1.5310876E1,5.1741333E3,1.3038507E3,6.795884E2,4.7218948E2,1.1053208E1,2.0552532E3,4.734989E3,4.3914426E2,7.9817926E2,5.0567142E2,3.1595367E2,3.636347E2,3.3440146E2,1.3778802E2],"tree_param":{"num_deleted":"0","num_feature":"31","num_nodes":"25","size_leaf_vector":"1"}},{"base_weights":[-2.8710827E-1,1.042263E0,-6.5951425E-1,-7.1434504E-1,1.1058273E0,-7.878582E-1,-6.069297E-2,-6.9279574E-2,-0E0,1.1365019E0,4.2893328E-2,-8.895286E-1,-3.885071E-1,3.4507477E-1,-5.7267755E-1,9.347573E-2,-0E0,-4.966748E-2,6.134965E-2,-1.2786523E-2,-7.487884E-2,-1.2711051E-3,-8.3446346E-2,-1.3769994E-2,6.119571E-2,-1.4773697E-2,-7.528523E-2],"categories":[],"categories_nodes":[],"categories_segments":[],"categories_sizes":[],"default_left":[0,0,0,0,0,0,0,0,0,0,0,0,0,0,0,0,0,0,0,0,0,0,0,0,0,0,0],"id":21,"left_children":[1,3,5,7,9,11,13,-1,-1,15,17,19,21,23,25,-1,-1,-1,-1,-1,-1,-1,-1,-1,-1,-1,-1],"loss_changes":[4.574887E3,2.3163501E2,5.489785E2,5.8473167E0,5.5011475E1,2.3049365E2,2.7040994E2,0E0,0E0,4.236084E0,3.2997753E1,7.248535E1,2.8032245E2,1.5161043E2,6.9923706E1,0E0,0E0,0E0,0E0,0E0,0E0,0E0,0E0,0E0,0E0,0E0,0E0],"parents":[2147483647,0,0,1,1,2,2,3,3,4,4,5,5,6,6,9,9,10,10,11,11,12,12,13,13,14,14],"right_children":[2,4,6,8,10,12,14,-1,-1,16,18,20,22,24,26,-1,-1,-1,-1,-1,-1,-1,-1,-1,-1,-1,-1],"split_conditions":[-1.7928886E0,-2.5948417E-1,1.1021835E0,-4.4650376E-1,-3.8117337E-1,7.3658925E-1,7.679171E-2,-6.9279574E-2,-0E0,-2.1354645E-1,1.2394204E0,-8.833977E-1,1.3620083E-1,-4.972303E-2,-1.1032605E-1,9.347573E-2,-0E0,-4.966748E-2,6.134965E-2,-1.2786523E-2,-7.487884E-2,-1.2711051E-3,-8.3446346E-2,-1.3769994E-2,6.119571E-2,-1.4773697E-2,-7.528523E-2],"split_indices":[9,3,3,3,11,16,7,0,0,2,3,19,7,16,19,0,0,0,0,0,0,0,0,0,0,0,0],"split_type":[0,0,0,0,0,0,0,0,0,0,0,0,0,0,0,0,0,0,0,0,0,0,0,0,0,0,0],"sum_hessian":[9.236545E3,2.0153743E3,7.221171E3,6.491666E1,1.9504576E3,5.9356226E3,1.285548E3,5.3440205E1,1.1476451E1,1.8888654E3,6.159221E1,4.71262E3,1.2230024E3,7.100604E2,5.7548755E2,1.8818497E3,7.015663E0,2.7058062E1,3.453415E1,1.5588817E2,4.556732E3,7.775445E2,4.4545795E2,3.047046E2,4.0535583E2,2.8202124E2,2.9346634E2],"tree_param":{"num_deleted":"0","num_feature":"31","num_nodes":"27","size_leaf_vector":"1"}},{"base_weights":[-2.830675E-1,8.4288627E-1,-7.265633E-1,1.1127986E0,1.3874917E-1,-3.2133323E-1,-8.2319355E-1,1.1402467E0,2.913868E-1,-4.9749318E-1,6.25953E-1,2.5578317E-1,-7.282824E-1,-8.8366E-1,-1.1006317E-1,9.389445E-2,-0E0,6.5702006E-2,-6.2718175E-2,8.32243E-2,-5.260149E-2,8.190496E-2,-4.911061E-2,1.304524E-1,-3.0960267E-2,4.6900082E-2,-6.600896E-2,-7.337623E-2,6.115813E-2,5.0672222E-2,-7.065538E-2],"categories":[],"categories_nodes":[],"categories_segments":[],"categories_sizes":[],"default_left":[0,0,0,0,0,0,0,0,0,0,0,0,0,0,0,0,0,0,0,0,0,0,0,0,0,0,0,0,0,0,0],"id":22,"left_children":[1,3,5,7,9,11,13,15,17,19,21,23,25,27,29,-1,-1,-1,-1,-1,-1,-1,-1,-1,-1,-1,-1,-1,-1,-1,-1],"loss_changes":[4.3919795E3,4.6198438E2,2.3787964E2,2.853955E1,2.1918573E2,2.9471866E2,2.115315E2,7.729004E0,4.151323E1,6.5135216E1,1.9003302E2,4.4002325E2,7.656015E1,8.686963E1,2.289001E2,0E0,0E0,0E0,0E0,0E0,0E0,0E0,0E0,0E0,0E0,0E0,0E0,0E0,0E0,0E0,0E0],"parents":[2147483647,0,0,1,1,2,2,3,3,4,4,5,5,6,6,7,7,8,8,9,9,10,10,11,11,12,12,13,13,14,14],"right_children":[2,4,6,8,10,12,14,16,18,20,22,24,26,28,30,-1,-1,-1,-1,-1,-1,-1,-1,-1,-1,-1,-1,-1,-1,-1,-1],"split_conditions":[-1.7124022E0,-1.8472973E0,-6.338732E-1,5.926987E-1,7.008716E-2,-1.9130489E-1,1.0238565E0,1.5998366E0,-4.497898E0,-9.810221E-1,9.8762333E-1,-1.0760302E-1,-1.5965672E0,3.3480911E0,-1.6388275E-2,9.389445E-2,-0E0,6.5702006E-2,-6.2718175E-2,8.32243E-2,-5.260149E-2,8.190496E-2,-4.911061E-2,1.304524E-1,-3.0960267E-2,4.6900082E-2,-6.600896E-2,-7.337623E-2,6.115813E-2,5.0672222E-2,-7.065538E-2],"split_indices":[13,11,13,15,0,12,6,6,13,6,0,8,11,4,1,0,0,0,0,0,0,0,0,0,0,0,0,0,0,0,0],"split_type":[0,0,0,0,0,0,0,0,0,0,0,0,0,0,0,0,0,0,0,0,0,0,0,0,0,0,0,0,0,0,0],"sum_hessian":[8.787647E3,2.477551E3,6.310096E3,1.7818431E3,6.957077E2,1.2328478E3,5.0772485E3,1.7141476E3,6.769564E1,2.9524158E2,4.0046613E2,5.0313647E2,7.2971136E2,4.6701396E3,4.071087E2,1.7066892E3,7.4582963E0,5.095469E1,1.6740955E1,1.9074356E1,2.7616724E2,3.121656E2,8.8300545E1,1.635357E2,3.3960077E2,3.3779285E1,6.9593207E2,4.645386E3,2.4753536E1,2.0228465E2,2.0482405E2],"tree_param":{"num_deleted":"0","num_feature":"31","num_nodes":"31","size_leaf_vector":"1"}},{"base_weights":[-2.694741E-1,1.055771E0,-6.2234366E-1,1.1245023E0,2.6285013E-2,-1.3573621E-1,-7.938335E-1,1.130237E0,-0E0,6.4261425E-1,-5.154311E-1,3.506331E-2,-9.4892204E-1,-8.574943E-1,-8.067092E-2,9.2995495E-2,-0E0,6.564186E-2,-0E0,-0E0,-7.453585E-2,-3.9695114E-2,2.6445322E-2,-8.0183096E-2,-0E0,-0E0,-7.2217286E-2,-6.5941654E-2,3.6891352E-2],"categories":[],"categories_nodes":[],"categories_segments":[],"categories_sizes":[],"default_left":[0,0,0,0,0,0,0,0,0,0,0,0,0,0,0,0,0,0,0,0,0,0,0,0,0,0,0,0,0],"id":23,"left_children":[1,3,5,7,9,11,13,15,-1,17,19,21,23,25,27,-1,-1,-1,-1,-1,-1,-1,-1,-1,-1,-1,-1,-1,-1],"loss_changes":[3.9022021E3,1.1554053E2,5.433779E2,8.0407715E0,4.254324E1,2.4774313E2,2.138728E2,3.166748E0,0E0,9.82922E0,1.6650087E1,2.1285059E2,3.9172363E0,8.4099365E1,1.6240424E2,0E0,0E0,0E0,0E0,0E0,0E0,0E0,0E0,0E0,0E0,0E0,0E0,0E0,0E0],"parents":[2147483647,0,0,1,1,2,2,3,3,4,4,5,5,6,6,7,7,9,9,10,10,11,11,12,12,13,13,14,14],"right_children":[2,4,6,8,10,12,14,16,-1,18,20,22,24,26,28,-1,-1,-1,-1,-1,-1,-1,-1,-1,-1,-1,-1,-1,-1],"split_conditions":[-3.553008E0,5.1353776E-1,-6.820612E-1,2.253046E0,-1.691945E0,8.10456E-1,1.0238565E0,7.8145427E-1,-0E0,-4.0593934E0,-1.5644662E-1,-4.6793886E-2,8.422798E-1,-1.1629932E0,3.7754488E0,9.2995495E-2,-0E0,6.564186E-2,-0E0,-0E0,-7.453585E-2,-3.9695114E-2,2.6445322E-2,-8.0183096E-2,-0E0,-0E0,-7.2217286E-2,-6.5941654E-2,3.6891352E-2],"split_indices":[13,6,13,15,9,2,6,9,0,13,19,27,20,20,28,0,0,0,0,0,0,0,0,0,0,0,0,0,0],"split_type":[0,0,0,0,0,0,0,0,0,0,0,0,0,0,0,0,0,0,0,0,0,0,0,0,0,0,0,0,0],"sum_hessian":[8.341099E3,1.7478872E3,6.593211E3,1.6315597E3,1.16327515E2,1.7310144E3,4.862197E3,1.6212972E3,1.0262426E1,6.028621E1,5.6041306E1,1.4265208E3,3.0449362E2,4.453666E3,4.0853082E2,1.6137178E3,7.579428E0,5.27333E1,7.5529113E0,2.0687656E1,3.535365E1,4.9836725E2,9.2815344E2,2.907815E2,1.3712123E1,1.2073529E2,4.3329307E3,1.7769388E2,2.3083696E2],"tree_param":{"num_deleted":"0","num_feature":"31","num_nodes":"29","size_leaf_vector":"1"}},{"base_weights":[-2.6412985E-1,7.9802334E-1,-6.8720675E-1,1.08639E0,1.1687765E-1,-6.193411E-2,-7.555599E-1,1.0954001E0,-0E0,-4.6207875E-1,5.6477654E-1,6.374483E-1,-7.5416815E-1,-3.5167602E-1,-8.4555614E-1,9.04754E-2,-0E0,-5.3878587E-2,3.882785E-2,7.2534904E-2,-3.9544333E-2,-6.7969947E-3,1.408084E-1,-0E0,-6.868574E-2,1.4722853E-2,-5.837093E-2,-7.3667824E-2,-1.5064224E-2],"categories":[],"categories_nodes":[],"categories_segments":[],"categories_sizes":[],"default_left":[0,0,0,0,0,0,0,0,0,0,0,0,0,0,0,0,0,0,0,0,0,0,0,0,0,0,0,0,0],"id":24,"left_children":[1,3,5,7,9,11,13,15,-1,17,19,21,23,25,27,-1,-1,-1,-1,-1,-1,-1,-1,-1,-1,-1,-1,-1,-1],"loss_changes":[3.5723186E3,4.3480896E2,2.3708105E2,2.2114014E1,1.7934181E2,2.8156128E2,1.7615112E2,1.4827026E1,0E0,5.6167957E1,1.3677274E2,2.3272844E2,1.8372253E1,1.8686423E2,1.364961E2,0E0,0E0,0E0,0E0,0E0,0E0,0E0,0E0,0E0,0E0,0E0,0E0,0E0,0E0],"parents":[2147483647,0,0,1,1,2,2,3,3,4,4,5,5,6,6,7,7,9,9,10,10,11,11,12,12,13,13,14,14],"right_children":[2,4,6,8,10,12,14,16,-1,18,20,22,24,26,28,-1,-1,-1,-1,-1,-1,-1,-1,-1,-1,-1,-1,-1,-1],"split_conditions":[-1.7124022E0,-1.8472973E0,-4.582004E-1,9.7415423E-1,1.0211807E-1,-9.931294E-2,-6.9846565E-1,6.4710647E-1,-0E0,4.640979E-1,9.8247105E-1,2.7160603E-1,-2.5275154E0,-2.6642993E-1,9.2288977E-1,9.04754E-2,-0E0,-5.3878587E-2,3.882785E-2,7.2534904E-2,-3.9544333E-2,-6.7969947E-3,1.408084E-1,-0E0,-6.868574E-2,1.4722853E-2,-5.837093E-2,-7.3667824E-2,-1.5064224E-2],"split_indices":[13,11,7,9,0,12,13,0,0,20,0,18,11,12,6,0,0,0,0,0,0,0,0,0,0,0,0,0,0],"split_type":[0,0,0,0,0,0,0,0,0,0,0,0,0,0,0,0,0,0,0,0,0,0,0,0,0,0,0,0,0],"sum_hessian":[7.9420513E3,2.256423E3,5.685628E3,1.5760862E3,6.80337E2,5.7148517E2,5.114143E3,1.5686261E3,7.4600706E0,2.8966345E2,3.9067352E2,2.7925125E2,2.922339E2,9.5027905E2,4.163864E3,1.5591534E3,9.472684E0,2.471653E2,4.2498154E1,3.0509943E2,8.557411E1,1.6577899E2,1.1347226E2,2.9780779E1,2.6245312E2,3.7659073E2,5.736883E2,3.8460688E3,3.1779507E2],"tree_param":{"num_deleted":"0","num_feature":"31","num_nodes":"29","size_leaf_vector":"1"}},{"base_weights":[-2.589238E-1,7.535152E-1,-6.7254376E-1,1.0706201E0,1.0304136E-1,-8.655615E-1,-2.8805512E-1,1.1005019E0,1.4790525E-1,2.732739E-1,-7.777271E-2,-8.8346404E-1,-5.4250535E-2,4.1752005E-1,-6.3936454E-1,9.0729676E-2,-0E0,5.6952707E-2,-6.068025E-2,3.999473E-2,-5.3344887E-2,-5.3104453E-2,-7.88503E-2,7.379081E-2,-6.007903E-2,1.5516187E-1,8.799408E-3,-6.9157556E-2,-1.9186404E-2],"categories":[],"categories_nodes":[],"categories_segments":[],"categories_sizes":[],"default_left":[0,0,0,0,0,0,0,0,0,0,0,0,0,0,0,0,0,0,0,0,0,0,0,0,0,0,0,0,0],"id":25,"left_children":[1,3,5,7,9,11,13,15,17,19,-1,21,23,25,27,-1,-1,-1,-1,-1,-1,-1,-1,-1,-1,-1,-1,-1,-1],"loss_changes":[3.147043E3,4.398097E2,3.8692627E2,3.0412598E1,1.2596596E2,4.445508E1,4.4977728E2,8.301392E0,2.998062E1,1.2549341E2,0E0,4.9256348E1,5.952408E1,2.5692615E2,9.1573395E1,0E0,0E0,0E0,0E0,0E0,0E0,0E0,0E0,0E0,0E0,0E0,0E0,0E0,0E0],"parents":[2147483647,0,0,1,1,2,2,3,3,4,4,5,5,6,6,7,7,8,8,9,9,11,11,12,12,13,13,14,14],"right_children":[2,4,6,8,10,12,14,16,18,20,-1,22,24,26,28,-1,-1,-1,-1,-1,-1,-1,-1,-1,-1,-1,-1,-1,-1],"split_conditions":[-1.631924E0,-1.9339242E0,4.9641114E-1,5.926987E-1,5.0834036E-1,1.7583271E0,-3.6913228E-1,9.4273007E-1,-1.7928886E0,5.93677E-1,-7.777271E-2,-4.884205E-1,-4.6247926E-1,-4.1516373E-1,1.5745354E-1,9.0729676E-2,-0E0,5.6952707E-2,-6.068025E-2,3.999473E-2,-5.3344887E-2,-5.3104453E-2,-7.88503E-2,7.379081E-2,-6.007903E-2,1.5516187E-1,8.799408E-3,-6.9157556E-2,-1.9186404E-2],"split_indices":[13,11,3,15,9,6,11,9,9,25,0,13,25,1,4,0,0,0,0,0,0,0,0,0,0,0,0,0,0],"split_type":[0,0,0,0,0,0,0,0,0,0,0,0,0,0,0,0,0,0,0,0,0,0,0,0,0,0,0,0,0],"sum_hessian":[7.507196E3,2.1713562E3,5.33584E3,1.4504557E3,7.209004E2,3.5364705E3,1.7993693E3,1.3965952E3,5.3860508E1,6.2900684E2,9.1893555E1,3.4510469E3,8.542355E1,5.910179E2,1.2083513E3,1.3891837E3,7.411452E0,3.8937923E1,1.4922584E1,5.184909E2,1.1051591E2,8.8842554E2,2.5626213E3,3.0505095E1,5.491846E1,9.500004E1,4.9601785E2,7.89338E2,4.1901334E2],"tree_param":{"num_deleted":"0","num_feature":"31","num_nodes":"29","size_leaf_vector":"1"}},{"base_weights":[-2.584655E-1,1.0355227E0,-5.655634E-1,1.0750343E0,-0E0,-9.650283E-2,-7.549573E-1,1.0807631E0,-0E0,5.8220536E-1,-5.1532157E-2,-8.3204234E-1,6.966025E-2,-8.216378E-1,-9.2790596E-2,8.8970624E-2,-0E0,-0E0,6.0347863E-2,-0E0,-7.57994E-2,2.4684502E-2,-4.149703E-2,-1.5089753E-2,-7.08588E-2,-4.676059E-2,7.7625155E-2],"categories":[],"categories_nodes":[],"categories_segments":[],"categories_sizes":[],"default_left":[0,0,0,0,0,0,0,0,0,0,0,0,0,0,0,0,0,0,0,0,0,0,0,0,0,0,0],"id":26,"left_children":[1,3,5,7,9,11,13,15,-1,17,-1,19,21,23,25,-1,-1,-1,-1,-1,-1,-1,-1,-1,-1,-1,-1],"loss_changes":[2.8309824E3,4.8439575E1,5.058523E2,4.230713E0,2.3414448E1,2.1040306E2,1.7395264E2,2.4073486E0,0E0,4.136595E0,0E0,2.1024902E1,1.8043265E2,9.170825E1,1.9267732E2,0E0,0E0,0E0,0E0,0E0,0E0,0E0,0E0,0E0,0E0,0E0,0E0],"parents":[2147483647,0,0,1,1,2,2,3,3,4,4,5,5,6,6,7,7,9,9,11,11,12,12,13,13,14,14],"right_children":[2,4,6,8,10,12,14,16,-1,18,-1,20,22,24,26,-1,-1,-1,-1,-1,-1,-1,-1,-1,-1,-1,-1],"split_conditions":[-4.0593934E0,9.2288977E-1,-6.9846565E-1,9.172927E-1,-1.691945E0,-7.9322374E-1,1.0238565E0,5.0834036E-1,-0E0,-3.3624205E-1,-5.1532157E-2,-1.2040601E0,7.317385E-1,-1.6609781E0,5.692879E-1,8.8970624E-2,-0E0,-0E0,6.0347863E-2,-0E0,-7.57994E-2,2.4684502E-2,-4.149703E-2,-1.5089753E-2,-7.08588E-2,-4.676059E-2,7.7625155E-2],"split_indices":[13,6,13,0,9,10,6,9,0,14,0,21,4,18,18,0,0,0,0,0,0,0,0,0,0,0,0],"split_type":[0,0,0,0,0,0,0,0,0,0,0,0,0,0,0,0,0,0,0,0,0,0,0,0,0,0,0],"sum_hessian":[7.122277E3,1.3596799E3,5.7625967E3,1.3031814E3,5.6498554E1,1.6703033E3,4.0922932E3,1.2929799E3,1.0201498E1,3.5141613E1,2.1356941E1,3.1271265E2,1.3575907E3,3.7070764E3,3.8521698E2,1.285684E3,7.295947E0,7.059157E0,2.8082457E1,3.5373566E1,2.7733908E2,9.7881854E2,3.787722E2,2.4226556E2,3.4648108E3,2.700301E2,1.1518689E2],"tree_param":{"num_deleted":"0","num_feature":"31","num_nodes":"27","size_leaf_vector":"1"}},{"base_weights":[-2.4616575E-1,7.124585E-1,-6.378231E-1,1.0138345E0,9.847317E-2,-8.3696574E-1,-2.6106748E-1,2.0733337E-1,8.61027E-2,-8.042534E-1,4.1194096E-1,-5.794884E-1,-9.1167676E-1,3.6014006E-1,-4.936296E-1,5.8056712E-2,-5.640314E-2,-0E0,-7.3435836E-2,6.383589E-2,-3.7420154E-2,-7.37786E-2,-1.2204264E-2,-7.912946E-2,-2.3740184E-2,1.8030994E-1,3.086326E-3,-5.5272892E-2,4.2266443E-2],"categories":[],"categories_nodes":[],"categories_segments":[],"categories_sizes":[],"default_left":[0,0,0,0,0,0,0,0,0,0,0,0,0,0,0,0,0,0,0,0,0,0,0,0,0,0,0,0,0],"id":27,"left_children":[1,3,5,7,9,11,13,15,-1,17,19,21,23,25,27,-1,-1,-1,-1,-1,-1,-1,-1,-1,-1,-1,-1,-1,-1],"loss_changes":[2.5594697E3,3.5661658E2,3.546443E2,2.806189E1,1.8591049E2,4.7710693E1,2.4642409E2,3.344648E1,0E0,1.4886795E1,1.6286308E2,9.4239655E1,6.9497925E1,2.5345831E2,2.2856268E2,0E0,0E0,0E0,0E0,0E0,0E0,0E0,0E0,0E0,0E0,0E0,0E0,0E0,0E0],"parents":[2147483647,0,0,1,1,2,2,3,3,4,4,5,5,6,6,7,7,9,9,10,10,11,11,12,12,13,13,14,14],"right_children":[2,4,6,8,10,12,14,16,-1,18,20,22,24,26,28,-1,-1,-1,-1,-1,-1,-1,-1,-1,-1,-1,-1,-1,-1],"split_conditions":[-1.631924E0,-1.691945E0,4.9641114E-1,5.077348E-1,-3.099413E-1,-5.925571E-1,-2.0275274E-1,1.3174095E0,8.61027E-2,-1.3882821E0,1.05595194E-1,-2.3677115E-1,4.163907E0,-1.7013583E0,5.348526E-1,5.8056712E-2,-5.640314E-2,-0E0,-7.3435836E-2,6.383589E-2,-3.7420154E-2,-7.37786E-2,-1.2204264E-2,-7.912946E-2,-2.3740184E-2,1.8030994E-1,3.086326E-3,-5.5272892E-2,4.2266443E-2],"split_indices":[13,9,3,3,20,13,28,17,0,9,26,3,28,18,22,0,0,0,0,0,0,0,0,0,0,0,0,0,0],"split_type":[0,0,0,0,0,0,0,0,0,0,0,0,0,0,0,0,0,0,0,0,0,0,0,0,0,0,0,0,0],"sum_hessian":[6.8092075E3,1.9687095E3,4.840498E3,1.3108086E3,6.579009E2,3.1507942E3,1.6897037E3,6.5609276E1,1.2451993E3,1.6194331E2,4.9595755E2,7.386164E2,2.4121777E3,4.51183E2,1.2385206E3,4.7815155E1,1.7794125E1,1.3493962E1,1.4844936E2,3.5494272E2,1.4101485E2,4.115474E2,3.2706903E2,2.2099592E3,2.022186E2,6.0369747E1,3.908133E2,1.0580648E3,1.8045589E2],"tree_param":{"num_deleted":"0","num_feature":"31","num_nodes":"29","size_leaf_vector":"1"}},{"base_weights":[-2.3946075E-1,1.0141554E0,-5.230257E-1,1.0272266E0,-0E0,-7.862584E-1,-1.23300396E-1,-0E0,1.0360749E0,-5.009284E-1,-8.932664E-1,2.9313073E-1,-4.516639E-1,-0E0,8.555793E-2,-7.321766E-2,-9.470077E-3,-7.8587346E-2,-2.3151275E-2,5.9696827E-2,-7.7886265E-3,2.5114596E-2,-5.2184485E-2],"categories":[],"categories_nodes":[],"categories_segments":[],"categories_sizes":[],"default_left":[0,0,0,0,0,0,0,0,0,0,0,0,0,0,0,0,0,0,0,0,0,0,0],"id":28,"left_children":[1,3,5,7,-1,9,11,-1,13,15,17,19,21,-1,-1,-1,-1,-1,-1,-1,-1,-1,-1],"loss_changes":[2.3088684E3,2.3245117E1,5.51475E2,1.1862305E1,0E0,8.540869E1,2.9202768E2,0E0,9.439087E0,1.278107E2,8.081299E1,1.6155234E2,1.7080655E2,0E0,0E0,0E0,0E0,0E0,0E0,0E0,0E0,0E0,0E0],"parents":[2147483647,0,0,1,1,2,2,3,3,5,5,6,6,8,8,9,9,10,10,11,11,12,12],"right_children":[2,4,6,8,-1,10,12,-1,14,16,18,20,22,-1,-1,-1,-1,-1,-1,-1,-1,-1,-1],"split_conditions":[-4.0593934E0,9.529092E-1,4.7764075E-1,-2.2527304E0,-0E0,-6.6517305E-1,-3.4054145E-1,-0E0,-2.7095792E-1,-3.0594692E-1,3.604136E0,-1.8180715E-1,-2.4620974E-1,-0E0,8.555793E-2,-7.321766E-2,-9.470077E-3,-7.8587346E-2,-2.3151275E-2,5.9696827E-2,-7.7886265E-3,2.5114596E-2,-5.2184485E-2],"split_indices":[13,0,3,23,0,13,13,0,3,3,28,12,28,0,0,0,0,0,0,0,0,0,0],"split_type":[0,0,0,0,0,0,0,0,0,0,0,0,0,0,0,0,0,0,0,0,0,0,0],"sum_hessian":[6.494579E3,1.1913718E3,5.303207E3,1.1831685E3,8.2034855E0,3.1841936E3,2.1190137E3,9.143452E0,1.1740249E3,8.9336475E2,2.2908289E3,9.247301E2,1.1942834E3,7.0752525E0,1.1669497E3,4.3108218E2,4.6228253E2,2.058271E3,2.3255786E2,4.432389E2,4.814912E2,2.2566235E2,9.6862115E2],"tree_param":{"num_deleted":"0","num_feature":"31","num_nodes":"23","size_leaf_vector":"1"}},{"base_weights":[-2.2295287E-1,1.0199037E0,-4.7427994E-1,1.0514328E0,-3.5498887E-2,-7.568877E-1,-6.905212E-2,8.680928E-2,-0E0,-9.4057494E-1,-5.6940734E-1,3.6636186E-1,-5.852199E-1,-7.890097E-2,-3.0645074E-2,-5.5593427E-2,2.3348383E-3,4.9678847E-2,-6.499244E-2,-6.47736E-2,-1.7681088E-2],"categories":[],"categories_nodes":[],"categories_segments":[],"categories_sizes":[],"default_left":[0,0,0,0,0,0,0,0,0,0,0,0,0,0,0,0,0,0,0,0,0],"id":29,"left_children":[1,3,5,7,-1,9,11,-1,-1,13,15,17,19,-1,-1,-1,-1,-1,-1,-1,-1],"loss_changes":[1.9351637E3,5.398828E1,5.854259E2,7.0421143E0,0E0,9.128735E1,4.8290112E2,0E0,0E0,7.069824E0,1.0393945E2,3.207715E2,6.6651E1,0E0,0E0,0E0,0E0,0E0,0E0,0E0,0E0],"parents":[2147483647,0,0,1,1,2,2,3,3,5,5,6,6,9,9,10,10,11,11,12,12],"right_children":[2,4,6,8,-1,10,12,-1,-1,14,16,18,20,-1,-1,-1,-1,-1,-1,-1,-1],"split_conditions":[-1.8561752E0,-8.215457E-1,4.9641114E-1,-9.1123305E-2,-3.5498887E-2,-3.0594692E-1,-4.898902E-2,8.680928E-2,-0E0,6.2063856E0,2.1798365E0,8.318555E-1,5.395429E-1,-7.890097E-2,-3.0645074E-2,-5.5593427E-2,2.3348383E-3,4.9678847E-2,-6.499244E-2,-6.47736E-2,-1.7681088E-2],"split_indices":[16,11,3,2,0,3,11,0,0,28,28,2,16,0,0,0,0,0,0,0,0],"split_type":[0,0,0,0,0,0,0,0,0,0,0,0,0,0,0,0,0,0,0,0,0],"sum_hessian":[6.1971675E3,1.0353989E3,5.1617686E3,1.0194011E3,1.59978485E1,3.0283384E3,2.1334304E3,1.0123974E3,7.0036817E0,1.5016908E3,1.5266475E3,1.1503113E3,9.8311914E2,1.4321389E3,6.955182E1,1.3021687E3,2.2447876E2,9.602373E2,1.9007399E2,6.1736346E2,3.6575568E2],"tree_param":{"num_deleted":"0","num_feature":"31","num_nodes":"21","size_leaf_vector":"1"}},{"base_weights":[-2.2019656E-1,9.251942E-1,-4.8316652E-1,1.0061797E0,-3.9884228E-1,-8.2524407E-1,-2.0077443E-1,1.0260979E0,-2.2356473E-2,-6.685234E-2,2.8198715E-2,-9.434968E-1,-6.423907E-1,4.3311104E-2,-7.765299E-1,8.487035E-2,-0E0,-7.897943E-2,-0E0,-3.6456242E-2,-7.632757E-2,3.9827667E-2,-3.987799E-2,-7.676446E-2,-2.5731284E-2],"categories":[],"categories_nodes":[],"categories_segments":[],"categories_sizes":[],"default_left":[0,0,0,0,0,0,0,0,0,0,0,0,0,0,0,0,0,0,0,0,0,0,0,0,0],"id":30,"left_children":[1,3,5,7,9,11,13,15,-1,-1,-1,17,19,21,23,-1,-1,-1,-1,-1,-1,-1,-1,-1,-1],"loss_changes":[1.7888265E3,1.2466522E2,4.595818E2,3.3320923E1,2.3618858E1,3.3071777E1,3.8054608E2,1.0897095E1,0E0,0E0,0E0,1.7260132E1,3.9207336E1,4.38785E2,4.901773E1,0E0,0E0,0E0,0E0,0E0,0E0,0E0,0E0,0E0,0E0],"parents":[2147483647,0,0,1,1,2,2,3,3,4,4,5,5,6,6,7,7,11,11,12,12,13,13,14,14],"right_children":[2,4,6,8,10,12,14,16,-1,-1,-1,18,20,22,24,-1,-1,-1,-1,-1,-1,-1,-1,-1,-1],"split_conditions":[-1.9086164E0,-4.050665E-1,1.8625847E-1,3.297959E0,3.3997573E-2,-3.681151E-1,1.3207959E-1,1.032057E0,-2.2356473E-2,-6.685234E-2,2.8198715E-2,2.024248E0,8.699446E-2,5.8444285E-1,1.8705164E0,8.487035E-2,-0E0,-7.897943E-2,-0E0,-3.6456242E-2,-7.632757E-2,3.9827667E-2,-3.987799E-2,-7.676446E-2,-2.5731284E-2],"split_indices":[9,11,3,6,0,3,7,8,0,0,0,6,7,0,3,0,0,0,0,0,0,0,0,0,0],"split_type":[0,0,0,0,0,0,0,0,0,0,0,0,0,0,0,0,0,0,0,0,0,0,0,0,0],"sum_hessian":[5.939123E3,1.1018602E3,4.8372627E3,1.0444355E3,5.742465E1,2.17226E3,2.665003E3,1.0347911E3,9.644387E0,4.2769905E1,1.4654745E1,1.284592E3,8.87668E2,1.8654836E3,7.995192E2,1.02779E3,7.001114E0,1.2518707E3,3.272126E1,5.4737036E2,3.402977E2,1.0240978E3,8.413859E2,5.799732E2,2.1954599E2],"tree_param":{"num_deleted":"0","num_feature":"31","num_nodes":"25","size_leaf_vector":"1"}},{"base_weights":[-2.0202422E-1,9.6896505E-1,-4.5140716E-1,9.9305904E-1,-2.7969304E-2,-4.1646406E-2,-6.934916E-1,8.299659E-2,-0E0,1.7034651E-1,-5.957153E-1,2.2281487E-2,-7.688219E-1,-0E0,-1.7351167E-2,2.9068995E-2,-6.312254E-2,6.27296E-2,-6.335519E-2,5.2284203E-2,-5.0229147E-2,-5.1897172E-2,-7.5487465E-2],"categories":[],"categories_nodes":[],"categories_segments":[],"categories_sizes":[],"default_left":[0,0,0,0,0,0,0,0,0,0,0,0,0,0,0,0,0,0,0,0,0,0,0],"id":31,"left_children":[1,3,5,7,-1,9,11,-1,13,15,17,19,21,-1,-1,-1,-1,-1,-1,-1,-1,-1,-1],"loss_changes":[1.6679089E3,3.7694824E1,4.6298212E2,2.1926147E1,0E0,2.1130682E2,1.6490271E2,0E0,5.200273E-1,2.1843182E2,1.2269826E2,1.09765884E2,4.170398E1,0E0,0E0,0E0,0E0,0E0,0E0,0E0,0E0,0E0,0E0],"parents":[2147483647,0,0,1,1,2,2,3,3,5,5,6,6,8,8,9,9,10,10,11,11,12,12],"right_children":[2,4,6,8,-1,10,12,-1,14,16,18,20,22,-1,-1,-1,-1,-1,-1,-1,-1,-1,-1],"split_conditions":[-4.0593934E0,1.0114672E0,-4.884205E-1,9.172927E-1,-2.7969304E-2,1.4039536E-1,-5.554102E-1,8.299659E-2,1.4422064E0,9.8247105E-1,-1.8561752E0,-1.0922009E-1,6.6688426E-2,-0E0,-1.7351167E-2,2.9068995E-2,-6.312254E-2,6.27296E-2,-6.335519E-2,5.2284203E-2,-5.0229147E-2,-5.1897172E-2,-7.5487465E-2],"split_indices":[13,9,13,0,0,7,7,0,4,0,16,12,7,0,0,0,0,0,0,0,0,0,0],"split_type":[0,0,0,0,0,0,0,0,0,0,0,0,0,0,0,0,0,0,0,0,0,0,0],"sum_hessian":[5.713866E3,9.960108E2,4.717855E3,9.8442944E2,1.1581395E1,1.7650326E3,2.9528225E3,9.694779E2,1.4951507E1,1.2692667E3,4.9576596E2,2.723273E2,2.6804954E3,7.5189137E0,7.4325933E0,1.0700312E3,1.992354E2,5.0681232E1,4.4508475E2,1.4405713E2,1.2827016E2,1.4483201E3,1.2321752E3],"tree_param":{"num_deleted":"0","num_feature":"31","num_nodes":"23","size_leaf_vector":"1"}},{"base_weights":[-1.9420934E-1,5.7084525E-1,-5.5189013E-1,9.558967E-1,1.18533604E-1,-3.5316658E-1,-9.024011E-1,9.756984E-1,-0E0,-7.7899724E-1,3.3826753E-1,-8.18925E-2,-8.719989E-1,-0E0,-9.141586E-1,8.149993E-2,-0E0,-0E0,-6.807494E-2,-4.087223E-2,5.3236023E-2,3.9912917E-2,-4.3908063E-2,-7.47564E-2,1.569225E-2,-3.0820098E-2,-7.657787E-2],"categories":[],"categories_nodes":[],"categories_segments":[],"categories_sizes":[],"default_left":[0,0,0,0,0,0,0,0,0,0,0,0,0,0,0,0,0,0,0,0,0,0,0,0,0,0,0],"id":32,"left_children":[1,3,5,7,9,11,13,15,-1,17,19,21,23,-1,25,-1,-1,-1,-1,-1,-1,-1,-1,-1,-1,-1,-1],"loss_changes":[1.4969834E3,2.942978E2,2.4964441E2,2.3110779E1,1.5809535E2,3.3096573E2,1.9947144E1,1.5567505E1,0E0,7.2745743E0,1.7449182E2,4.1164664E2,4.007483E1,0E0,2.9368896E0,0E0,0E0,0E0,0E0,0E0,0E0,0E0,0E0,0E0,0E0,0E0,0E0],"parents":[2147483647,0,0,1,1,2,2,3,3,4,4,5,5,6,6,7,7,9,9,10,10,11,11,12,12,14,14],"right_children":[2,4,6,8,10,12,14,16,-1,18,20,22,24,-1,26,-1,-1,-1,-1,-1,-1,-1,-1,-1,-1,-1,-1],"split_conditions":[-1.3546157E0,-1.7629585E0,9.796757E-2,6.368816E-1,3.7889406E-2,6.095643E-1,-2.569063E0,2.1150844E0,-0E0,-1.4421558E0,-8.586894E-1,-1.8180715E-1,4.0817687E-1,-0E0,-2.019438E0,8.149993E-2,-0E0,-0E0,-6.807494E-2,-4.087223E-2,5.3236023E-2,3.9912917E-2,-4.3908063E-2,-7.47564E-2,1.569225E-2,-3.0820098E-2,-7.657787E-2],"split_indices":[13,11,7,0,17,0,5,12,0,9,5,12,1,0,11,0,0,0,0,0,0,0,0,0,0,0,0],"split_type":[0,0,0,0,0,0,0,0,0,0,0,0,0,0,0,0,0,0,0,0,0,0,0,0,0,0,0],"sum_hessian":[5.4620127E3,1.7328605E3,3.729152E3,9.248833E2,8.079772E2,2.3983862E3,1.3307657E3,9.118314E2,1.3051886E1,1.503466E2,6.5763055E2,1.5872509E3,8.111355E2,1.0249294E1,1.3205164E3,8.948937E2,1.693773E1,7.823639E0,1.4252296E2,1.7114397E2,4.8648657E2,6.970513E2,8.901995E2,7.892885E2,2.1846987E1,6.1909935E1,1.2586064E3],"tree_param":{"num_deleted":"0","num_feature":"31","num_nodes":"27","size_leaf_vector":"1"}},{"base_weights":[-2.002581E-1,8.402931E-1,-4.307217E-1,-5.924034E-2,9.672286E-1,-2.5462714E-1,-8.528756E-1,1.6119228E-1,-4.918714E-1,9.8290163E-1,-0E0,-7.1022373E-1,-6.83418E-2,-0E0,-8.879316E-1,5.202788E-2,-0E0,-5.3850453E-2,-0E0,8.174279E-2,-0E0,1.1204795E-3,-6.6169426E-2,1.4866858E-2,-4.7298584E-2,5.433471E-2,-4.2058647E-2,-0E0,-7.350974E-2],"categories":[],"categories_nodes":[],"categories_segments":[],"categories_sizes":[],"default_left":[0,0,0,0,0,0,0,0,0,0,0,0,0,0,0,0,0,0,0,0,0,0,0,0,0,0,0,0,0],"id":33,"left_children":[1,3,5,7,9,11,13,15,17,19,-1,21,23,25,27,-1,-1,-1,-1,-1,-1,-1,-1,-1,-1,-1,-1,-1,-1],"loss_changes":[1.2574421E3,1.1499487E2,3.1120593E2,1.3600491E1,1.7518677E1,2.53596E2,4.3867493E1,6.8520412E0,5.2843065E0,1.3375061E1,0E0,6.690643E1,2.8054816E2,1.7982258E1,1.0158203E1,0E0,0E0,0E0,0E0,0E0,0E0,0E0,0E0,0E0,0E0,0E0,0E0,0E0,0E0],"parents":[2147483647,0,0,1,1,2,2,3,3,4,4,5,5,6,6,7,7,8,8,9,9,11,11,12,12,13,13,14,14],"right_children":[2,4,6,8,10,12,14,16,18,20,-1,22,24,26,28,-1,-1,-1,-1,-1,-1,-1,-1,-1,-1,-1,-1,-1,-1],"split_conditions":[-1.7928886E0,1.0755025E0,1.4039536E-1,-2.8585815E-1,1.5998366E0,-3.707043E-1,-2.9693285E-1,-1.7254719E0,-1.9086164E0,-3.994646E-1,-0E0,-5.98056E-1,5.45145E-2,1.5154816E-1,-2.569063E0,5.202788E-2,-0E0,-5.3850453E-2,-0E0,8.174279E-2,-0E0,1.1204795E-3,-6.6169426E-2,1.4866858E-2,-4.7298584E-2,5.433471E-2,-4.2058647E-2,-0E0,-7.350974E-2],"split_indices":[9,10,7,5,6,17,28,2,9,2,0,19,29,5,5,0,0,0,0,0,0,0,0,0,0,0,0,0,0],"split_type":[0,0,0,0,0,0,0,0,0,0,0,0,0,0,0,0,0,0,0,0,0,0,0,0,0,0,0,0,0],"sum_hessian":[5.2453315E3,9.434061E2,4.3019253E3,1.0990582E2,8.335003E2,3.0524607E3,1.2494647E3,6.349361E1,4.641221E1,8.2513165E2,8.368615E0,8.7120953E2,2.1812512E3,4.1396137E1,1.2080686E3,1.7213182E1,4.628043E1,3.6475327E1,9.936884E0,8.1602466E2,9.107018E0,9.407552E1,7.7713403E2,1.4551925E3,7.2605865E2,2.3647812E1,1.7748323E1,9.581168E0,1.1984874E3],"tree_param":{"num_deleted":"0","num_feature":"31","num_nodes":"29","size_leaf_vector":"1"}},{"base_weights":[-1.8567954E-1,9.2422444E-1,-3.989379E-1,9.947606E-1,-0E0,-2.32206E-3,-6.1405957E-1,8.220253E-2,-0E0,-4.0739223E-1,4.0392235E-1,1.3607937E-1,-8.380844E-1,-7.233036E-1,6.613683E-2,-0E0,-6.632558E-2,4.7992636E-2,-0E0,-2.2777697E-2,3.285626E-2,-7.676179E-2,-0E0,-0E0,-6.483448E-2,1.2748212E-1,-1.9430602E-2],"categories":[],"categories_nodes":[],"categories_segments":[],"categories_sizes":[],"default_left":[0,0,0,0,0,0,0,0,0,0,0,0,0,0,0,0,0,0,0,0,0,0,0,0,0,0,0],"id":34,"left_children":[1,3,5,7,9,11,13,-1,-1,15,17,19,21,23,25,-1,-1,-1,-1,-1,-1,-1,-1,-1,-1,-1,-1],"loss_changes":[1.193258E3,5.4050354E1,3.577411E2,2.4579468E0,1.0623989E1,1.8007469E2,2.085835E2,0E0,0E0,8.520845E0,2.7998137E0,1.4259839E2,2.0564423E1,1.1322266E2,1.7966072E2,0E0,0E0,0E0,0E0,0E0,0E0,0E0,0E0,0E0,0E0,0E0,0E0],"parents":[2147483647,0,0,1,1,2,2,3,3,4,4,5,5,6,6,9,9,10,10,11,11,12,12,13,13,14,14],"right_children":[2,4,6,8,10,12,14,-1,-1,16,18,20,22,24,26,-1,-1,-1,-1,-1,-1,-1,-1,-1,-1,-1,-1],"split_conditions":[-4.0593934E0,5.974167E-1,-6.338732E-1,9.961438E-1,-2.442852E-1,8.10456E-1,9.2288977E-1,8.220253E-2,-0E0,-1.7928886E0,-5.103161E0,-2.742711E-1,5.640187E-1,-4.582004E-1,-1.1568614E0,-0E0,-6.632558E-2,4.7992636E-2,-0E0,-2.2777697E-2,3.285626E-2,-7.676179E-2,-0E0,-0E0,-6.483448E-2,1.2748212E-1,-1.9430602E-2],"split_indices":[13,6,13,29,20,2,6,0,0,9,13,24,20,7,12,0,0,0,0,0,0,0,0,0,0,0,0],"split_type":[0,0,0,0,0,0,0,0,0,0,0,0,0,0,0,0,0,0,0,0,0,0,0,0,0,0,0],"sum_hessian":[5.046614E3,8.0567145E2,4.2409424E3,7.495138E2,5.6157608E1,1.5046483E3,2.736294E3,7.4086725E2,8.646569E0,2.9495157E1,2.666245E1,1.2864767E3,2.1817165E2,2.3665588E3,3.697353E2,1.2101684E1,1.7393475E1,1.8692862E1,7.969589E0,4.909318E2,7.9554486E2,1.976271E2,2.0544535E1,2.0430869E2,2.16225E3,6.365891E1,3.060764E2],"tree_param":{"num_deleted":"0","num_feature":"31","num_nodes":"27","size_leaf_vector":"1"}},{"base_weights":[-1.7127863E-1,-4.9106053E-1,5.6441534E-1,-8.058513E-1,-2.1185945E-1,9.421888E-1,2.02373E-1,-8.43048E-1,6.8308234E-2,1.2882928E0,-3.3515197E-1,1.0558909E0,-0E0,8.3220863E-1,-3.2945496E-1,-7.8016765E-2,-5.0482906E-2,-5.3005572E-2,1.11087956E-1,-4.186464E-2,1.6872935E-1,-3.704775E-2,4.0514052E-2,8.075286E-2,1.9252907E-1,-5.0783962E-2,8.752572E-2,9.134883E-2,-1.8964747E-2,-6.473346E-2,1.7817054E-2],"categories":[],"categories_nodes":[],"categories_segments":[],"categories_sizes":[],"default_left":[0,0,0,0,0,0,0,0,0,0,0,0,0,0,0,0,0,0,0,0,0,0,0,0,0,0,0,0,0,0,0],"id":35,"left_children":[1,3,5,7,9,11,13,15,17,19,21,23,25,27,29,-1,-1,-1,-1,-1,-1,-1,-1,-1,-1,-1,-1,-1,-1,-1,-1],"loss_changes":[1.1474626E3,2.9136676E2,1.9226508E2,5.7461304E1,3.3216724E2,7.9828735E1,2.6161353E2,2.3901978E1,6.460505E1,2.0208455E2,1.6413313E2,2.4948975E1,5.211581E1,1.14733536E2,1.0852081E2,0E0,0E0,0E0,0E0,0E0,0E0,0E0,0E0,0E0,0E0,0E0,0E0,0E0,0E0,0E0,0E0],"parents":[2147483647,0,0,1,1,2,2,3,3,4,4,5,5,6,6,7,7,8,8,9,9,10,10,11,11,12,12,13,13,14,14],"right_children":[2,4,6,8,10,12,14,16,18,20,22,24,26,28,30,-1,-1,-1,-1,-1,-1,-1,-1,-1,-1,-1,-1,-1,-1,-1,-1],"split_conditions":[1.2906168E0,4.578129E-2,-6.546667E-1,2.024248E0,-6.3322026E-1,4.096112E-1,-2.0275274E-1,-3.681151E-1,-9.2156745E-2,-3.9024365E-1,3.2603927E0,-1.1798297E-1,7.7153003E-1,2.0903012E-1,2.6889235E-1,-7.8016765E-2,-5.0482906E-2,-5.3005572E-2,1.11087956E-1,-4.186464E-2,1.6872935E-1,-3.704775E-2,4.0514052E-2,8.075286E-2,1.9252907E-1,-5.0783962E-2,8.752572E-2,9.134883E-2,-1.8964747E-2,-6.473346E-2,1.7817054E-2],"split_indices":[3,3,15,6,19,16,28,3,16,26,28,16,17,7,16,0,0,0,0,0,0,0,0,0,0,0,0,0,0,0,0],"split_type":[0,0,0,0,0,0,0,0,0,0,0,0,0,0,0,0,0,0,0,0,0,0,0,0,0,0,0,0,0,0,0],"sum_hessian":[4.870517E3,3.4026877E3,1.467829E3,1.5835364E3,1.8191515E3,7.052644E2,7.625646E2,1.5269706E3,5.6565853E1,1.3070193E2,1.6884495E3,6.3229944E2,7.296496E1,3.5424646E2,4.083181E2,1.00475836E3,5.2221216E2,3.4092934E1,2.2472918E1,3.674465E1,9.395728E1,1.4897125E3,1.9873697E2,6.1146344E2,2.0835983E1,4.943557E1,2.3529392E1,2.8532062E2,6.892586E1,2.2795927E2,1.8035884E2],"tree_param":{"num_deleted":"0","num_feature":"31","num_nodes":"31","size_leaf_vector":"1"}},{"base_weights":[-1.646471E-1,-4.8105937E-1,5.614811E-1,-8.041734E-1,-2.1684797E-1,9.7004193E-1,2.8316352E-1,-8.919914E-1,-5.29654E-1,1.3570896E-1,-6.0203797E-1,-0E0,9.864833E-1,-2.0025498E-1,6.774753E-1,-7.9848714E-2,-5.6271166E-2,-7.4091025E-2,-2.0775728E-2,4.0381316E-2,-5.0849114E-2,-7.0760585E-2,-0E0,8.161528E-2,-0E0,-5.2103423E-2,3.358497E-2,8.2269266E-2,-3.0550356E-3],"categories":[],"categories_nodes":[],"categories_segments":[],"categories_sizes":[],"default_left":[0,0,0,0,0,0,0,0,0,0,0,0,0,0,0,0,0,0,0,0,0,0,0,0,0,0,0,0,0],"id":36,"left_children":[1,3,5,7,9,11,13,15,17,19,21,-1,23,25,27,-1,-1,-1,-1,-1,-1,-1,-1,-1,-1,-1,-1,-1,-1],"loss_changes":[1.0799685E3,2.720326E2,1.5136957E2,2.3009338E1,2.5131303E2,5.375E0,1.6824692E2,3.3754272E0,3.0409004E1,2.5515198E2,1.3886911E2,0E0,1.8945312E0,1.04041405E2,1.196604E2,0E0,0E0,0E0,0E0,0E0,0E0,0E0,0E0,0E0,0E0,0E0,0E0,0E0,0E0],"parents":[2147483647,0,0,1,1,2,2,3,3,4,4,5,5,6,6,7,7,8,8,9,9,10,10,12,12,13,13,14,14],"right_children":[2,4,6,8,10,12,14,16,18,20,22,-1,24,26,28,-1,-1,-1,-1,-1,-1,-1,-1,-1,-1,-1,-1,-1,-1],"split_conditions":[1.2906168E0,2.6919473E-2,-1.8561752E0,5.3334093E-1,4.5878276E-1,-4.319295E0,-1.1609326E-1,-3.4865716E-1,-5.4178065E-1,1.6548085E-1,8.267351E-1,-0E0,6.075038E-1,2.10121E-1,8.389511E-1,-7.9848714E-2,-5.6271166E-2,-7.4091025E-2,-2.0775728E-2,4.0381316E-2,-5.0849114E-2,-7.0760585E-2,-0E0,8.161528E-2,-0E0,-5.2103423E-2,3.358497E-2,8.2269266E-2,-3.0550356E-3],"split_indices":[3,3,16,18,0,19,0,3,17,7,16,0,17,22,0,0,0,0,0,0,0,0,0,0,0,0,0,0,0],"split_type":[0,0,0,0,0,0,0,0,0,0,0,0,0,0,0,0,0,0,0,0,0,0,0,0,0,0,0,0,0],"sum_hessian":[4.693918E3,3.2772185E3,1.4166992E3,1.4581292E3,1.8190895E3,5.593049E2,8.5739435E2,1.0776638E3,3.8046527E2,9.4140656E2,8.776829E2,1.3103177E1,5.462017E2,3.77876E2,4.795183E2,7.3589594E2,3.4176794E2,1.4662183E2,2.3384344E2,6.4706165E2,2.9434488E2,6.1191345E2,2.6576947E2,5.387291E2,7.472587E0,2.2735168E2,1.5052432E2,3.3524985E2,1.4426848E2],"tree_param":{"num_deleted":"0","num_feature":"31","num_nodes":"29","size_leaf_vector":"1"}},{"base_weights":[-1.5699139E-1,8.8704056E-1,-3.4322608E-1,9.3478256E-1,-0E0,-0E0,-5.834422E-1,9.625502E-1,-0E0,3.255481E-1,-5.3308528E-2,1.9028921E-1,-5.618351E-1,-0E0,-6.932481E-1,-0E0,7.95312E-2,-0E0,3.412675E-2,-2.6507843E-2,4.1442998E-2,4.3167118E-2,-5.8689192E-2,4.881935E-2,-5.876485E-2,-6.35737E-2,2.7293045E-2],"categories":[],"categories_nodes":[],"categories_segments":[],"categories_sizes":[],"default_left":[0,0,0,0,0,0,0,0,0,0,0,0,0,0,0,0,0,0,0,0,0,0,0,0,0,0,0],"id":37,"left_children":[1,3,5,7,9,11,13,15,-1,17,-1,19,21,23,25,-1,-1,-1,-1,-1,-1,-1,-1,-1,-1,-1,-1],"loss_changes":[8.813855E2,2.9762756E1,3.186023E2,2.161316E1,9.244392E0,1.7136583E2,1.4264227E2,2.071228E0,0E0,5.1592827E-1,0E0,1.9535677E2,7.0783905E1,1.604299E2,1.6438776E2,0E0,0E0,0E0,0E0,0E0,0E0,0E0,0E0,0E0,0E0,0E0,0E0],"parents":[2147483647,0,0,1,1,2,2,3,3,4,4,5,5,6,6,7,7,9,9,11,11,12,12,13,13,14,14],"right_children":[2,4,6,8,10,12,14,16,-1,18,-1,20,22,24,26,-1,-1,-1,-1,-1,-1,-1,-1,-1,-1,-1,-1],"split_conditions":[-4.0593934E0,2.9049773E0,-4.6441162E-1,9.920911E-1,-4.603874E-1,1.3207959E-1,-3.8519204E-1,6.299245E-2,-0E0,3.6894372E-1,-5.3308528E-2,-4.6793886E-2,-1.8561752E0,-1.181019E-1,8.006602E-1,-0E0,7.95312E-2,-0E0,3.412675E-2,-2.6507843E-2,4.1442998E-2,4.3167118E-2,-5.8689192E-2,4.881935E-2,-5.876485E-2,-6.35737E-2,2.7293045E-2],"split_indices":[13,17,13,8,12,7,7,10,0,27,0,27,16,12,22,0,0,0,0,0,0,0,0,0,0,0,0],"split_type":[0,0,0,0,0,0,0,0,0,0,0,0,0,0,0,0,0,0,0,0,0,0,0,0,0,0,0],"sum_hessian":[4.5425073E3,6.793783E2,3.8631292E3,6.453985E2,3.3979794E1,1.5930015E3,2.2701277E3,6.317882E2,1.3610302E1,2.3139177E1,1.0840613E1,1.1914633E3,4.015382E2,3.6660934E2,1.9035184E3,7.0065694E0,6.247817E2,7.6157537E0,1.5523424E1,4.4422998E2,7.472332E2,4.261856E1,3.5891965E2,1.97269E2,1.6934035E2,1.7704213E3,1.3309709E2],"tree_param":{"num_deleted":"0","num_feature":"31","num_nodes":"27","size_leaf_vector":"1"}},{"base_weights":[-1.4984512E-1,7.842856E-1,-3.4338775E-1,9.4387203E-1,-1.9391702E-1,-0E0,-6.025348E-1,1.0371547E0,1.845736E-1,1.4041278E0,-6.912567E-1,2.1202046E-1,-5.602193E-1,-7.015638E-1,1.5595923E-1,8.796824E-2,-0E0,6.053135E-2,-7.3666506E-2,2.2310324E-1,-2.075255E-3,-0E0,-7.0081405E-2,-3.1709243E-2,4.170057E-2,-5.8765657E-2,5.2484263E-2,7.083104E-3,-6.54166E-2,9.3533345E-2,-7.416214E-2],"categories":[],"categories_nodes":[],"categories_segments":[],"categories_sizes":[],"default_left":[0,0,0,0,0,0,0,0,0,0,0,0,0,0,0,0,0,0,0,0,0,0,0,0,0,0,0,0,0,0,0],"id":38,"left_children":[1,3,5,7,9,11,13,15,17,19,21,23,25,27,29,-1,-1,-1,-1,-1,-1,-1,-1,-1,-1,-1,-1,-1,-1,-1,-1],"loss_changes":[7.924765E2,1.2312692E2,3.2203915E2,3.6495117E1,8.014605E1,1.8992723E2,1.6006537E2,1.7890991E1,5.2429665E1,6.1487812E1,1.4457741E1,2.0472977E2,8.5193665E1,1.4471057E2,2.5055661E2,0E0,0E0,0E0,0E0,0E0,0E0,0E0,0E0,0E0,0E0,0E0,0E0,0E0,0E0,0E0,0E0],"parents":[2147483647,0,0,1,1,2,2,3,3,4,4,5,5,6,6,7,7,8,8,9,9,10,10,11,11,12,12,13,13,14,14],"right_children":[2,4,6,8,10,12,14,16,18,20,22,24,26,28,30,-1,-1,-1,-1,-1,-1,-1,-1,-1,-1,-1,-1,-1,-1,-1,-1],"split_conditions":[-2.4449763E0,5.013756E-1,-4.884205E-1,5.683971E-1,-1.8054106E0,-2.3271036E-3,6.763274E-1,9.706291E-1,-4.0593934E0,-3.7658718E-1,-7.420108E-1,-8.698898E-1,6.0783833E-1,-5.270912E-1,2.5175836E-2,8.796824E-2,-0E0,6.053135E-2,-7.3666506E-2,2.2310324E-1,-2.075255E-3,-0E0,-7.0081405E-2,-3.1709243E-2,4.170057E-2,-5.8765657E-2,5.2484263E-2,7.083104E-3,-6.54166E-2,9.3533345E-2,-7.416214E-2],"split_indices":[11,13,13,4,18,29,22,29,13,19,7,29,20,7,11,0,0,0,0,0,0,0,0,0,0,0,0,0,0,0,0],"split_type":[0,0,0,0,0,0,0,0,0,0,0,0,0,0,0,0,0,0,0,0,0,0,0,0,0,0,0,0,0,0,0],"sum_hessian":[4.3904883E3,7.449424E2,3.645546E3,6.46929E2,9.8013374E1,1.5772874E3,2.0682585E3,5.6631323E2,8.061581E1,1.8004889E1,8.0008484E1,1.1402324E3,4.370549E2,1.8381086E3,2.3014989E2,5.449293E2,2.1383886E1,5.8643776E1,2.1972029E1,1.003599E1,7.968899E0,9.277418E0,7.0731064E1,3.690968E2,7.711356E2,3.935327E2,4.352218E1,1.914271E2,1.6466815E3,1.2270638E2,1.074435E2],"tree_param":{"num_deleted":"0","num_feature":"31","num_nodes":"31","size_leaf_vector":"1"}},{"base_weights":[-1.4588827E-1,8.632832E-1,-3.1326982E-1,9.169941E-1,-0E0,-4.9600253E-1,6.800456E-2,9.4687384E-1,-0E0,4.25498E-1,-5.7463873E-2,3.4441254E-1,-5.6769603E-1,-5.7899284E-1,3.6644864E-1,7.8411296E-2,-0E0,-0E0,4.671633E-2,1.3882345E-1,-3.4056295E-2,6.2063698E-2,-5.023667E-2,-6.676529E-2,3.3621766E-2,5.705752E-2,-3.4629643E-2],"categories":[],"categories_nodes":[],"categories_segments":[],"categories_sizes":[],"default_left":[0,0,0,0,0,0,0,0,0,0,0,0,0,0,0,0,0,0,0,0,0,0,0,0,0,0,0],"id":39,"left_children":[1,3,5,7,9,11,13,15,-1,17,-1,19,21,23,25,-1,-1,-1,-1,-1,-1,-1,-1,-1,-1,-1,-1],"loss_changes":[7.180244E2,2.4340363E1,2.58901E2,2.0582703E1,1.3205044E1,1.5270209E2,2.271672E2,5.588989E-1,0E0,1.9749546E0,0E0,2.0746568E2,1.3767944E2,8.945446E1,2.1544034E2,0E0,0E0,0E0,0E0,0E0,0E0,0E0,0E0,0E0,0E0,0E0,0E0],"parents":[2147483647,0,0,1,1,2,2,3,3,4,4,5,5,6,6,7,7,9,9,11,11,12,12,13,13,14,14],"right_children":[2,4,6,8,10,12,14,16,-1,18,-1,20,22,24,26,-1,-1,-1,-1,-1,-1,-1,-1,-1,-1,-1,-1],"split_conditions":[-4.0593934E0,1.7363228E0,7.539481E-1,1.032057E0,-4.603874E-1,-7.915675E-1,-1.9971882E-1,2.6182983E0,-0E0,-3.3748612E-1,-5.7463873E-2,-5.692603E-1,-2.4655821E0,3.604136E0,2.1504726E0,7.8411296E-2,-0E0,-0E0,4.671633E-2,1.3882345E-1,-3.4056295E-2,6.2063698E-2,-5.023667E-2,-6.676529E-2,3.3621766E-2,5.705752E-2,-3.4629643E-2],"split_indices":[13,15,16,8,12,19,15,17,0,20,0,15,16,28,16,0,0,0,0,0,0,0,0,0,0,0,0],"split_type":[0,0,0,0,0,0,0,0,0,0,0,0,0,0,0,0,0,0,0,0,0,0,0,0,0,0,0],"sum_hessian":[4.2633755E3,5.979119E2,3.6654639E3,5.583905E2,3.9521408E1,2.4898396E3,1.175624E3,5.464021E2,1.19883995E1,2.9075697E1,1.0445712E1,1.8653766E2,2.303302E3,3.6222498E2,8.133991E2,5.3661615E2,9.785977E0,8.609429E0,2.0466267E1,6.880091E1,1.1773674E2,6.7848564E1,2.2354534E3,2.9917957E2,6.304542E1,5.806817E2,2.3271739E2],"tree_param":{"num_deleted":"0","num_feature":"31","num_nodes":"27","size_leaf_vector":"1"}},{"base_weights":[-1.451649E-1,-4.3067327E-1,4.9449378E-1,-5.7731677E-2,-7.200066E-1,9.365279E-1,1.1851411E-1,-7.7071965E-1,2.0185225E-1,-8.72908E-1,6.4520694E-2,1.0112258E0,-4.921042E-2,3.472765E-1,-7.437217E-1,-7.4232355E-2,-2.2552403E-2,4.026747E-2,-5.107792E-2,9.147181E-2,-7.318197E-2,-3.9689362E-2,1.1856733E-1,8.871259E-2,-9.108739E-3,9.255235E-2,-5.029965E-3,-0E0,-8.232994E-2],"categories":[],"categories_nodes":[],"categories_segments":[],"categories_sizes":[],"default_left":[0,0,0,0,0,0,0,0,0,0,0,0,0,0,0,0,0,0,0,0,0,0,0,0,0,0,0,0,0],"id":40,"left_children":[1,3,5,7,9,11,13,15,17,19,21,23,-1,25,27,-1,-1,-1,-1,-1,-1,-1,-1,-1,-1,-1,-1,-1,-1],"loss_changes":[7.535499E2,3.0294885E2,2.0244666E2,2.389709E2,1.9799518E2,7.125168E1,1.3592647E2,1.3475021E1,2.2047061E2,5.4193848E1,2.0462558E2,5.1085876E1,0E0,1.871065E2,3.3652702E1,0E0,0E0,0E0,0E0,0E0,0E0,0E0,0E0,0E0,0E0,0E0,0E0,0E0,0E0],"parents":[2147483647,0,0,1,1,2,2,3,3,4,4,5,5,6,6,7,7,8,8,9,9,10,10,11,11,13,13,14,14],"right_children":[2,4,6,8,10,12,14,16,18,20,22,24,-1,26,28,-1,-1,-1,-1,-1,-1,-1,-1,-1,-1,-1,-1,-1,-1],"split_conditions":[1.2394204E0,-4.760036E-1,-2.106394E0,-3.0594692E-1,3.2603927E0,1.6628823E0,8.460136E-1,5.0083786E-1,-2.3271036E-3,-2.5656173E0,5.447148E-1,3.487729E0,-4.921042E-2,-2.0275274E-1,-4.0593934E0,-7.4232355E-2,-2.2552403E-2,4.026747E-2,-5.107792E-2,9.147181E-2,-7.318197E-2,-3.9689362E-2,1.1856733E-1,8.871259E-2,-9.108739E-3,9.255235E-2,-5.029965E-3,-0E0,-8.232994E-2],"split_indices":[3,13,11,3,28,13,1,18,29,22,18,16,0,28,13,0,0,0,0,0,0,0,0,0,0,0,0,0,0],"split_type":[0,0,0,0,0,0,0,0,0,0,0,0,0,0,0,0,0,0,0,0,0,0,0,0,0,0,0,0,0],"sum_hessian":[4.1195986E3,2.857033E3,1.2625656E3,1.2612722E3,1.5957606E3,5.6860974E2,6.939558E2,3.4186188E2,9.194104E2,1.3427878E3,2.5297276E2,5.4809454E2,2.0515167E1,5.5704126E2,1.3691457E2,2.5482368E2,8.703819E1,6.884976E2,2.3091278E2,7.0147877E0,1.3357731E3,1.7927513E2,7.369764E1,5.2198096E2,2.611358E1,1.9485475E2,3.6218652E2,3.0229067E1,1.0668549E2],"tree_param":{"num_deleted":"0","num_feature":"31","num_nodes":"29","size_leaf_vector":"1"}},{"base_weights":[-1.3041961E-1,-6.926092E-1,1.646791E-1,-8.8467693E-1,-4.389703E-1,8.343502E-1,-1.4928119E-2,-9.1403687E-1,-1.6595874E-3,5.242982E-2,-6.669449E-1,9.3056226E-1,-2.7247867E-1,7.85377E-2,-8.5252243E-1,-7.821834E-2,-3.4678895E-2,-4.0904794E-2,4.5712404E-2,-2.9428886E-2,9.980788E-2,-6.748635E-2,3.555934E-2,8.365078E-2,-9.672204E-3,5.3485064E-3,-5.309505E-2,1.6080366E-2,-5.570941E-2,-7.790908E-2,3.387042E-2],"categories":[],"categories_nodes":[],"categories_segments":[],"categories_sizes":[],"default_left":[0,0,0,0,0,0,0,0,0,0,0,0,0,0,0,0,0,0,0,0,0,0,0,0,0,0,0,0,0,0,0],"id":41,"left_children":[1,3,5,7,9,11,13,15,17,19,21,23,25,27,29,-1,-1,-1,-1,-1,-1,-1,-1,-1,-1,-1,-1,-1,-1,-1,-1],"loss_changes":[6.654055E2,5.6090393E1,3.1968036E2,1.3228943E1,7.3996056E1,6.546619E1,1.66532E2,2.6157227E0,1.0949347E1,9.909339E1,7.86485E1,5.589691E1,9.7005E0,1.6109871E2,3.1883911E1,0E0,0E0,0E0,0E0,0E0,0E0,0E0,0E0,0E0,0E0,0E0,0E0,0E0,0E0,0E0,0E0],"parents":[2147483647,0,0,1,1,2,2,3,3,4,4,5,5,6,6,7,7,8,8,9,9,10,10,11,11,12,12,13,13,14,14],"right_children":[2,4,6,8,10,12,14,16,18,20,22,24,26,28,30,-1,-1,-1,-1,-1,-1,-1,-1,-1,-1,-1,-1,-1,-1,-1,-1],"split_conditions":[1.7733279E-1,-3.76927E-1,-9.6242565E-1,2.024248E0,-3.354807E-1,7.4072737E-1,9.5311046E-1,1.6321092E0,5.2235365E-1,1.9003702E0,1.0368785E0,7.994142E-1,-1.0670723E0,8.42164E-1,2.204118E0,-7.821834E-2,-3.4678895E-2,-4.0904794E-2,4.5712404E-2,-2.9428886E-2,9.980788E-2,-6.748635E-2,3.555934E-2,8.365078E-2,-9.672204E-3,5.3485064E-3,-5.309505E-2,1.6080366E-2,-5.570941E-2,-7.790908E-2,3.387042E-2],"split_indices":[3,3,6,6,25,15,8,15,18,28,18,2,12,2,19,0,0,0,0,0,0,0,0,0,0,0,0,0,0,0,0],"split_type":[0,0,0,0,0,0,0,0,0,0,0,0,0,0,0,0,0,0,0,0,0,0,0,0,0,0,0,0,0,0,0],"sum_hessian":[3.9808037E3,1.3767659E3,2.6040378E3,7.613476E2,6.1541833E2,5.5597986E2,2.048058E3,7.2879156E2,3.2556065E1,1.860154E2,4.294029E2,5.181314E2,3.784846E1,1.8381208E3,2.0993718E2,6.5723346E2,7.1558105E1,2.4309313E1,8.246753E0,1.3502644E2,5.098896E1,3.8282004E2,4.6582886E1,4.8393484E2,3.4196564E1,1.1597259E1,2.6251202E1,1.6022776E3,2.3584328E2,2.0121657E2,8.72062E0],"tree_param":{"num_deleted":"0","num_feature":"31","num_nodes":"31","size_leaf_vector":"1"}},{"base_weights":[-1.14869334E-1,-7.205647E-1,1.3842139E-1,-1.9450054E-1,-8.123653E-1,5.0119823E-1,-4.1476008E-1,4.5600262E-1,-8.035341E-1,-8.948247E-1,-3.2743445E-1,6.3801104E-1,-6.712984E-1,-6.775573E-1,1.2157555E-2,-5.6563474E-2,1.01276E-1,-0E0,-7.209376E-2,-7.574889E-2,-2.5879862E-2,1.657231E-2,-7.191497E-2,6.269911E-2,-1.8704178E-2,8.3321944E-2,-6.7171685E-2,-6.585847E-2,-2.605001E-2,2.1695323E-2,-6.570677E-2],"categories":[],"categories_nodes":[],"categories_segments":[],"categories_sizes":[],"default_left":[0,0,0,0,0,0,0,0,0,0,0,0,0,0,0,0,0,0,0,0,0,0,0,0,0,0,0,0,0,0,0],"id":42,"left_children":[1,3,5,7,9,11,13,15,17,19,21,23,25,27,29,-1,-1,-1,-1,-1,-1,-1,-1,-1,-1,-1,-1,-1,-1,-1,-1],"loss_changes":[5.966769E2,4.746161E1,5.466035E2,7.837341E1,2.8479248E1,2.6627402E2,1.2491087E2,8.5699875E1,3.7827835E0,3.2557983E0,5.1966423E1,1.6718634E2,4.4143288E1,2.1208313E1,7.938873E1,0E0,0E0,0E0,0E0,0E0,0E0,0E0,0E0,0E0,0E0,0E0,0E0,0E0,0E0,0E0,0E0],"parents":[2147483647,0,0,1,1,2,2,3,3,4,4,5,5,6,6,7,7,8,8,9,9,10,10,11,11,12,12,13,13,14,14],"right_children":[2,4,6,8,10,12,14,16,18,20,22,24,26,28,30,-1,-1,-1,-1,-1,-1,-1,-1,-1,-1,-1,-1,-1,-1,-1,-1],"split_conditions":[4.578129E-2,-1.0622001E0,1.5657498E-3,-3.622766E-1,8.650522E-1,8.10456E-1,5.749785E-1,-9.0409344E-1,-1.6358944E0,-2.3623845E-2,-1.3648611E-1,7.742018E-1,-2.5248015E0,2.3605981E-1,-2.3271036E-3,-5.6563474E-2,1.01276E-1,-0E0,-7.209376E-2,-7.574889E-2,-2.5879862E-2,1.657231E-2,-7.191497E-2,6.269911E-2,-1.8704178E-2,8.3321944E-2,-6.7171685E-2,-6.585847E-2,-2.605001E-2,2.1695323E-2,-6.570677E-2],"split_indices":[3,9,11,25,16,2,16,3,2,3,2,13,18,9,29,0,0,0,0,0,0,0,0,0,0,0,0,0,0,0,0],"split_type":[0,0,0,0,0,0,0,0,0,0,0,0,0,0,0,0,0,0,0,0,0,0,0,0,0,0,0,0,0,0,0],"sum_hessian":[3.8549382E3,1.1428394E3,2.7120989E3,1.8342677E2,9.5941254E2,1.6460585E3,1.0660405E3,8.3470184E1,9.995659E1,8.0422845E2,1.5518405E2,1.4812826E3,1.6477586E2,6.688009E2,3.972396E2,3.0219347E1,5.325084E1,1.2203108E1,8.775348E1,7.520696E2,5.215887E1,7.36741E1,8.150996E1,1.3003549E3,1.809278E2,7.3399553E0,1.5743591E2,4.7736154E2,1.9143939E2,3.1210068E2,8.5138916E1],"tree_param":{"num_deleted":"0","num_feature":"31","num_nodes":"31","size_leaf_vector":"1"}},{"base_weights":[-1.3024145E-1,7.8994143E-1,-2.6532292E-1,9.2111975E-1,-8.052462E-2,-9.363862E-2,-7.3000956E-1,7.670263E-2,-0E0,-5.465618E-2,-0E0,-4.8656413E-1,1.35926E-1,-5.834464E-2,-8.3785564E-1,1.6824698E-2,-5.772276E-3,-5.0177433E-2,2.0711707E-2,-2.4549926E-2,3.553806E-2,2.9107893E-2,-7.560532E-2,-7.1019374E-2,1.9028516E-2],"categories":[],"categories_nodes":[],"categories_segments":[],"categories_sizes":[],"default_left":[0,0,0,0,0,0,0,0,0,0,0,0,0,0,0,0,0,0,0,0,0,0,0,0,0],"id":43,"left_children":[1,3,5,7,9,11,13,-1,-1,-1,15,17,19,21,23,-1,-1,-1,-1,-1,-1,-1,-1,-1,-1],"loss_changes":[4.67036E2,6.098105E1,2.5757843E2,4.4084167E0,7.50693E0,2.2207089E2,5.7079834E1,0E0,0E0,0E0,1.6725546E0,8.732651E1,1.9898836E2,5.3817093E1,2.7824707E1,0E0,0E0,0E0,0E0,0E0,0E0,0E0,0E0,0E0,0E0],"parents":[2147483647,0,0,1,1,2,2,3,3,4,4,5,5,6,6,10,10,11,11,12,12,13,13,14,14],"right_children":[2,4,6,8,10,12,14,-1,-1,-1,16,18,20,22,24,-1,-1,-1,-1,-1,-1,-1,-1,-1,-1],"split_conditions":[-4.0593934E0,4.551588E-1,1.3620083E-1,1.6807114E0,1.6220022E0,-7.543846E-2,-1.7124022E0,7.670263E-2,-0E0,-5.465618E-2,1.5998366E0,6.543618E-1,-5.076761E-1,2.027066E0,3.3480911E0,1.6824698E-2,-5.772276E-3,-5.0177433E-2,2.0711707E-2,-2.4549926E-2,3.553806E-2,2.9107893E-2,-7.560532E-2,-7.1019374E-2,1.9028516E-2],"split_indices":[13,6,7,15,10,16,13,0,0,0,6,22,5,16,4,0,0,0,0,0,0,0,0,0,0],"split_type":[0,0,0,0,0,0,0,0,0,0,0,0,0,0,0,0,0,0,0,0,0,0,0,0,0],"sum_hessian":[3.7765618E3,4.7398553E2,3.3025762E3,4.1890762E2,5.5077915E1,2.426607E3,8.7596924E2,4.1138193E2,7.5256686E0,1.358404E1,4.1493874E1,9.0476434E2,1.5218425E3,1.3134685E2,7.446224E2,3.421511E1,7.2787633E0,7.826978E2,1.2206655E2,6.078232E2,9.140194E2,8.484515E1,4.650169E1,7.330066E2,1.1615807E1],"tree_param":{"num_deleted":"0","num_feature":"31","num_nodes":"25","size_leaf_vector":"1"}},{"base_weights":[-1.0417555E-1,-6.811215E-1,1.320225E-1,-1.2870988E-1,-7.7368337E-1,5.2564627E-1,-3.0340332E-1,-7.210517E-1,3.7852833E-1,-8.5817885E-1,-3.2199773E-1,7.165144E-1,-3.6830622E-1,-5.5559164E-1,1.127019E-1,-0E0,-7.194418E-2,-2.3254158E-2,1.2595227E-1,-7.793914E-2,-4.488686E-2,-6.760453E-2,3.961132E-2,7.275463E-2,-5.1197648E-2,-6.801014E-2,1.9636458E-2,-5.877517E-2,-1.4581608E-2,-5.725912E-2,3.7614483E-2],"categories":[],"categories_nodes":[],"categories_segments":[],"categories_sizes":[],"default_left":[0,0,0,0,0,0,0,0,0,0,0,0,0,0,0,0,0,0,0,0,0,0,0,0,0,0,0,0,0,0,0],"id":44,"left_children":[1,3,5,7,9,11,13,15,17,19,21,23,25,27,29,-1,-1,-1,-1,-1,-1,-1,-1,-1,-1,-1,-1,-1,-1,-1,-1],"loss_changes":[5.053659E2,4.816336E1,4.4845844E2,5.49521E1,2.508435E1,2.3866019E2,1.325276E2,1.164082E1,7.8438545E1,8.505188E0,7.0307014E1,2.6549036E2,7.187457E1,4.028151E1,1.277129E2,0E0,0E0,0E0,0E0,0E0,0E0,0E0,0E0,0E0,0E0,0E0,0E0,0E0,0E0,0E0,0E0],"parents":[2147483647,0,0,1,1,2,2,3,3,4,4,5,5,6,6,7,7,8,8,9,9,10,10,11,11,12,12,13,13,14,14],"right_children":[2,4,6,8,10,12,14,16,18,20,22,24,26,28,30,-1,-1,-1,-1,-1,-1,-1,-1,-1,-1,-1,-1,-1,-1,-1,-1],"split_conditions":[6.415501E-2,-1.1094975E0,-2.1340446E-1,-4.5204225E-1,8.458625E-1,6.095643E-1,7.3658925E-1,-1.1725913E0,8.652434E-1,-2.3677115E-1,8.3374494E-1,8.318555E-1,1.421394E0,2.1730286E-1,-1.9105932E-1,-0E0,-7.194418E-2,-2.3254158E-2,1.2595227E-1,-7.793914E-2,-4.488686E-2,-6.760453E-2,3.961132E-2,7.275463E-2,-5.1197648E-2,-6.801014E-2,1.9636458E-2,-5.877517E-2,-1.4581608E-2,-5.725912E-2,3.7614483E-2],"split_indices":[3,9,11,0,16,0,16,15,6,3,15,2,3,9,15,0,0,0,0,0,0,0,0,0,0,0,0,0,0,0,0],"split_type":[0,0,0,0,0,0,0,0,0,0,0,0,0,0,0,0,0,0,0,0,0,0,0,0,0,0,0,0,0,0,0],"sum_hessian":[3.6724207E3,1.0733341E3,2.5990867E3,1.6666888E2,9.066652E2,1.3733218E3,1.2257649E3,8.263656E1,8.403232E1,7.4714417E2,1.5952104E2,1.1390344E3,2.3428737E2,7.731381E2,4.5262677E2,1.30149765E1,6.962158E1,5.149136E1,3.254096E1,5.5198193E2,1.9516228E2,1.03694695E2,5.582635E1,1.0165809E3,1.2245353E2,1.391342E2,9.515317E1,5.2613E2,2.470081E2,1.278312E2,3.2479556E2],"tree_param":{"num_deleted":"0","num_feature":"31","num_nodes":"31","size_leaf_vector":"1"}},{"base_weights":[-1.027946E-1,8.5624814E-1,-2.1073677E-1,8.74221E-1,-0E0,-5.702748E-1,-4.1612804E-2,7.274422E-2,-0E0,-7.1085876E-1,-0E0,8.2616575E-2,-6.675231E-1,3.128353E-2,-6.4363636E-2,-7.019407E-2,2.6119323E-2,1.6709121E-2,-6.298603E-2,3.315455E-2,-6.58449E-2],"categories":[],"categories_nodes":[],"categories_segments":[],"categories_sizes":[],"default_left":[0,0,0,0,0,0,0,0,0,0,0,0,0,0,0,0,0,0,0,0,0],"id":45,"left_children":[1,3,5,7,-1,9,11,-1,-1,13,15,17,19,-1,-1,-1,-1,-1,-1,-1,-1],"loss_changes":[3.6710342E2,5.5694885E0,1.9197583E2,1.3285217E0,0E0,7.8754395E1,1.7675134E2,0E0,0E0,6.965335E1,6.1130604E1,1.8638857E2,5.8877655E1,0E0,0E0,0E0,0E0,0E0,0E0,0E0,0E0],"parents":[2147483647,0,0,1,1,2,2,3,3,5,5,6,6,9,9,10,10,11,11,12,12],"right_children":[2,4,6,8,-1,10,12,-1,-1,14,16,18,20,-1,-1,-1,-1,-1,-1,-1,-1],"split_conditions":[-2.4655821E0,1.2459654E0,-1.5012449E-1,3.1314018E0,-0E0,9.2288977E-1,8.317632E-1,7.274422E-2,-0E0,-1.2670543E0,-1.058752E0,9.8762333E-1,-1.0351828E0,3.128353E-2,-6.4363636E-2,-7.019407E-2,2.6119323E-2,1.6709121E-2,-6.298603E-2,3.315455E-2,-6.58449E-2],"split_indices":[16,6,16,24,0,6,1,0,0,9,0,0,19,0,0,0,0,0,0,0,0],"split_type":[0,0,0,0,0,0,0,0,0,0,0,0,0,0,0,0,0,0,0,0,0],"sum_hessian":[3.579701E3,3.5243774E2,3.2272632E3,3.452123E2,7.2254195E0,1.01559564E3,2.2116677E3,3.370184E2,8.193913E0,8.079732E2,2.0762248E2,1.8388055E3,3.7286206E2,4.3855694E1,7.641175E2,5.798653E1,1.4963596E2,1.6198533E3,2.1895226E2,3.4857243E1,3.3800482E2],"tree_param":{"num_deleted":"0","num_feature":"31","num_nodes":"21","size_leaf_vector":"1"}},{"base_weights":[-1.00933105E-1,6.787246E-1,-2.2708002E-1,8.6387324E-1,-5.513531E-1,-5.646533E-2,-7.325352E-1,9.8803616E-1,-0E0,-0E0,-6.232853E-2,1.535251E-1,-6.7653155E-1,2.852495E-1,-7.886242E-1,6.675866E-2,1.8540469E-1,-3.8459137E-2,5.2903324E-2,-5.339184E-2,3.2063108E-2,8.9488864E-2,-6.0949653E-2,8.03636E-2,-2.0728638E-2,1.7350847E-2,-6.903142E-2],"categories":[],"categories_nodes":[],"categories_segments":[],"categories_sizes":[],"default_left":[0,0,0,0,0,0,0,0,0,0,0,0,0,0,0,0,0,0,0,0,0,0,0,0,0,0,0],"id":46,"left_children":[1,3,5,7,9,11,13,15,17,-1,-1,19,21,23,25,-1,-1,-1,-1,-1,-1,-1,-1,-1,-1,-1,-1],"loss_changes":[3.416925E2,1.1371088E2,2.5494528E2,4.4081604E1,9.830788E0,3.0060995E2,4.751773E1,5.200305E1,1.937096E1,0E0,0E0,3.2288483E2,6.971683E1,1.9602345E1,4.347574E1,0E0,0E0,0E0,0E0,0E0,0E0,0E0,0E0,0E0,0E0,0E0,0E0],"parents":[2147483647,0,0,1,1,2,2,3,3,4,4,5,5,6,6,7,7,8,8,11,11,12,12,13,13,14,14],"right_children":[2,4,6,8,10,12,14,16,18,-1,-1,20,22,24,26,-1,-1,-1,-1,-1,-1,-1,-1,-1,-1,-1,-1],"split_conditions":[-2.5275154E0,8.063138E-1,1.3620083E-1,2.9250455E-1,-6.635483E-1,1.2028123E-1,-2.019438E0,4.180071E-1,2.6269825E0,-0E0,-6.232853E-2,-3.8129535E-1,-2.1520667E0,-2.4345507E-1,-2.9679313E-1,6.675866E-2,1.8540469E-1,-3.8459137E-2,5.2903324E-2,-5.339184E-2,3.2063108E-2,8.9488864E-2,-6.0949653E-2,8.03636E-2,-2.0728638E-2,1.7350847E-2,-6.903142E-2],"split_indices":[11,8,7,6,6,29,11,8,28,0,0,17,6,17,28,0,0,0,0,0,0,0,0,0,0,0,0],"split_type":[0,0,0,0,0,0,0,0,0,0,0,0,0,0,0,0,0,0,0,0,0,0,0,0,0,0,0],"sum_hessian":[3.4966042E3,4.7642813E2,3.020176E3,4.2028467E2,5.614346E1,2.2721584E3,7.4801776E2,3.6545947E2,5.482518E1,1.1542971E1,4.460049E1,1.6909962E3,5.811622E2,3.1451889E1,7.1656586E2,3.3249115E2,3.296833E1,3.1093088E1,2.3732092E1,3.7668616E2,1.31431E3,1.4804811E1,5.6635736E2,1.8085535E1,1.3366354E1,2.8551764E1,6.880141E2],"tree_param":{"num_deleted":"0","num_feature":"31","num_nodes":"27","size_leaf_vector":"1"}},{"base_weights":[-1.1099228E-1,-6.911333E-1,1.03983656E-1,-2.820058E-1,-8.290642E-1,2.916472E-1,-3.5476136E-1,-7.1676925E-2,7.6277666E-2,-7.274395E-2,-2.0636375E-1,4.168314E-1,-6.9490427E-1,2.2695406E-1,-5.465618E-1,5.8310468E-2,-6.505182E-2,-5.960058E-2,5.7043687E-2,5.24111E-2,-0E0,-0E0,-7.400198E-2,-3.975207E-2,8.1090234E-2,-5.6322996E-2,1.6200274E-2],"categories":[],"categories_nodes":[],"categories_segments":[],"categories_sizes":[],"default_left":[0,0,0,0,0,0,0,0,0,0,0,0,0,0,0,0,0,0,0,0,0,0,0,0,0,0,0],"id":47,"left_children":[1,3,5,7,9,11,13,-1,15,-1,17,19,21,23,25,-1,-1,-1,-1,-1,-1,-1,-1,-1,-1,-1,-1],"loss_changes":[4.3127267E2,4.3746643E1,2.1443385E2,6.0156612E1,1.5941803E1,2.1920268E2,8.2481964E1,0E0,8.7409904E1,0E0,3.7120377E1,1.4730579E2,3.3191704E1,9.8134155E1,6.1166992E1,0E0,0E0,0E0,0E0,0E0,0E0,0E0,0E0,0E0,0E0,0E0,0E0],"parents":[2147483647,0,0,1,1,2,2,3,3,4,4,5,5,6,6,8,8,10,10,11,11,12,12,13,13,14,14],"right_children":[2,4,6,8,10,12,14,-1,16,-1,18,20,22,24,26,-1,-1,-1,-1,-1,-1,-1,-1,-1,-1,-1,-1],"split_conditions":[2.6919473E-2,-8.83437E-1,1.5960245E-1,-5.172732E-1,5.3098583E0,8.42164E-1,-3.737904E-1,-7.1676925E-2,5.807371E-1,-7.274395E-2,4.2599058E-1,6.0263336E-1,-3.2287672E-1,-2.310863E-2,7.15471E-1,5.8310468E-2,-6.505182E-2,-5.960058E-2,5.7043687E-2,5.24111E-2,-0E0,-0E0,-7.400198E-2,-3.975207E-2,8.1090234E-2,-5.6322996E-2,1.6200274E-2],"split_indices":[3,13,13,3,28,2,7,0,4,0,14,15,19,26,19,0,0,0,0,0,0,0,0,0,0,0,0],"split_type":[0,0,0,0,0,0,0,0,0,0,0,0,0,0,0,0,0,0,0,0,0,0,0,0,0,0,0],"sum_hessian":[3.4174329E3,9.305444E2,2.4868887E3,2.510339E2,6.795105E2,1.7771548E3,7.097338E2,9.998954E1,1.5104436E2,6.095707E2,6.993978E1,1.585684E3,1.9147076E2,1.6646027E2,5.4327356E2,9.2552124E1,5.8492233E1,4.994619E1,1.9993593E1,1.0332075E3,5.5247644E2,3.8800632E1,1.5267014E2,8.1945015E1,8.451526E1,4.656308E2,7.764279E1],"tree_param":{"num_deleted":"0","num_feature":"31","num_nodes":"27","size_leaf_vector":"1"}},{"base_weights":[-1.0587684E-1,1.5041663E-1,-4.568367E-1,9.6179795E-1,1.7528242E-2,-7.730141E-1,-2.0249178E-1,8.2166046E-1,2.0421402E-1,5.288382E-1,-1.6158606E-1,-2.0435208E-1,-8.5115296E-1,-8.0791056E-1,5.3749327E-2,7.2176956E-2,-0E0,-2.7919637E-2,6.981212E-2,-3.1637393E-2,5.1727522E-2,-5.084351E-2,8.037776E-2,1.696116E-3,-7.2618894E-2,-0E0,-7.2153136E-2,-5.2835044E-2,3.2866716E-2],"categories":[],"categories_nodes":[],"categories_segments":[],"categories_sizes":[],"default_left":[0,0,0,0,0,0,0,0,0,0,0,0,0,0,0,0,0,0,0,0,0,0,0,0,0,0,0,0,0],"id":48,"left_children":[1,3,5,7,9,11,13,15,-1,17,19,21,23,25,27,-1,-1,-1,-1,-1,-1,-1,-1,-1,-1,-1,-1,-1,-1],"loss_changes":[3.049936E2,2.0148184E2,1.0748166E2,2.4169739E1,1.5636378E2,1.9394379E1,1.3160812E2,1.3875519E1,0E0,1.2979167E2,2.1813928E2,4.526663E1,2.230252E1,1.962915E1,1.3639804E2,0E0,0E0,0E0,0E0,0E0,0E0,0E0,0E0,0E0,0E0,0E0,0E0,0E0,0E0],"parents":[2147483647,0,0,1,1,2,2,3,3,4,4,5,5,6,6,7,7,9,9,10,10,11,11,12,12,13,13,14,14],"right_children":[2,4,6,8,10,12,14,16,-1,18,20,22,24,26,28,-1,-1,-1,-1,-1,-1,-1,-1,-1,-1,-1,-1,-1,-1],"split_conditions":[-4.027005E-2,-1.6533464E0,1.9923713E-2,3.3480911E0,-1.0740397E0,-2.8254035E-1,-5.9977822E-2,9.358034E-1,2.0421402E-1,-6.6490453E-1,3.2603927E0,-2.9092434E-1,-1.5519143E0,-1.2520171E0,-2.1812195E-1,7.2176956E-2,-0E0,-2.7919637E-2,6.981212E-2,-3.1637393E-2,5.1727522E-2,-5.084351E-2,8.037776E-2,1.696116E-3,-7.2618894E-2,-0E0,-7.2153136E-2,-5.2835044E-2,3.2866716E-2],"split_indices":[11,6,17,4,18,28,27,29,0,30,28,28,12,12,0,0,0,0,0,0,0,0,0,0,0,0,0,0,0],"split_type":[0,0,0,0,0,0,0,0,0,0,0,0,0,0,0,0,0,0,0,0,0,0,0,0,0,0,0,0,0],"sum_hessian":[3.3587642E3,1.9306787E3,1.4280853E3,2.6038348E2,1.6702952E3,6.201918E2,8.078936E2,2.487364E2,1.1647086E1,4.416547E2,1.2286405E3,8.791688E1,5.322749E2,2.459497E2,5.619439E2,2.3426416E2,1.4472252E1,1.1333357E2,3.2832114E2,9.664855E2,2.62155E2,7.107386E1,1.6843018E1,1.2169353E1,5.201055E2,1.3767016E1,2.321827E2,1.784957E2,3.8344818E2],"tree_param":{"num_deleted":"0","num_feature":"31","num_nodes":"29","size_leaf_vector":"1"}},{"base_weights":[-9.578845E-2,-5.949747E-1,1.2927975E-1,-7.606956E-1,-1.3375522E-1,7.9588985E-1,1.7969703E-2,-1.0116061E-1,-6.981359E-2,-8.53992E-1,2.0343329E-1,-0E0,6.753647E-2,1.6417538E-1,-5.7926685E-1,1.7113006E-2,-6.23033E-2,-7.3121786E-2,-0E0,-5.2919924E-2,6.289133E-2,2.220974E-2,-6.8215005E-2,-0E0,-6.495765E-2],"categories":[],"categories_nodes":[],"categories_segments":[],"categories_sizes":[],"default_left":[0,0,0,0,0,0,0,0,0,0,0,0,0,0,0,0,0,0,0,0,0,0,0,0,0],"id":49,"left_children":[1,3,5,7,9,11,13,15,-1,17,19,-1,-1,21,23,-1,-1,-1,-1,-1,-1,-1,-1,-1,-1],"loss_changes":[3.7383603E2,7.218942E1,1.6207176E2,3.74151E1,7.58683E1,8.789017E0,1.680085E2,2.5987932E1,0E0,9.171982E-1,9.5743965E1,0E0,0E0,1.6487636E2,4.983326E1,0E0,0E0,0E0,0E0,0E0,0E0,0E0,0E0,0E0,0E0],"parents":[2147483647,0,0,1,1,2,2,3,3,4,4,5,5,6,6,7,7,9,9,10,10,13,13,14,14],"right_children":[2,4,6,8,10,12,14,16,-1,18,20,-1,-1,22,24,-1,-1,-1,-1,-1,-1,-1,-1,-1,-1],"split_conditions":[1.8625847E-1,5.5712813E-1,-4.497898E0,-1.631924E0,-5.207479E-1,-1.9763215E0,1.8413605E-1,-3.13119E-1,-6.981359E-2,1.6561548E0,-2.791692E-1,-0E0,6.753647E-2,1.3144611E0,-1.7124022E0,1.7113006E-2,-6.23033E-2,-7.3121786E-2,-0E0,-5.2919924E-2,6.289133E-2,2.220974E-2,-6.8215005E-2,-0E0,-6.495765E-2],"split_indices":[3,18,13,13,17,23,7,2,0,10,16,0,0,24,13,0,0,0,0,0,0,0,0,0,0],"split_type":[0,0,0,0,0,0,0,0,0,0,0,0,0,0,0,0,0,0,0,0,0,0,0,0,0],"sum_hessian":[3.2904104E3,1.0303527E3,2.2600576E3,7.44479E2,2.858737E2,3.1041638E2,1.9496412E3,1.004657E2,6.440133E2,9.593947E1,1.8993423E2,7.680654E0,3.0273572E2,1.578376E3,3.7126523E2,6.2808273E1,3.7657425E1,8.885442E1,7.0850434E0,7.042041E1,1.1951382E2,1.4350662E3,1.4330986E2,9.510887E1,2.7615637E2],"tree_param":{"num_deleted":"0","num_feature":"31","num_nodes":"25","size_leaf_vector":"1"}},{"base_weights":[-8.991273E-2,-6.216236E-1,1.0525977E-1,-4.3114915E-1,-7.91667E-2,2.2675389E-1,-7.6949257E-1,-6.5130466E-1,6.924607E-2,3.473333E-1,-5.865685E-1,-8.163955E-1,-0E0,-3.3910065E-3,-7.2014906E-2,5.1553715E-2,-6.82844E-2,4.0338878E-2,-2.4859883E-2,-7.261297E-2,-0E0,-7.161609E-2,-0E0],"categories":[],"categories_nodes":[],"categories_segments":[],"categories_sizes":[],"default_left":[0,0,0,0,0,0,0,0,0,0,0,0,0,0,0,0,0,0,0,0,0,0,0],"id":50,"left_children":[1,3,5,7,-1,9,11,13,15,17,19,21,-1,-1,-1,-1,-1,-1,-1,-1,-1,-1,-1],"loss_changes":[3.3742654E2,4.5313873E1,2.4591516E2,6.860121E1,0E0,2.0198746E2,1.4817642E1,5.0611618E1,8.7383316E1,1.7221536E2,4.4031883E1,1.3199905E1,0E0,0E0,0E0,0E0,0E0,0E0,0E0,0E0,0E0,0E0,0E0],"parents":[2147483647,0,0,1,1,2,2,3,3,5,5,6,6,7,7,8,8,9,9,10,10,11,11],"right_children":[2,4,6,8,-1,10,12,14,16,18,20,22,-1,-1,-1,-1,-1,-1,-1,-1,-1,-1,-1],"split_conditions":[7.450279E-2,-9.273264E-2,9.654595E-1,5.2235365E-1,-7.91667E-2,8.2098085E-1,1.1346877E0,-8.010232E-1,2.45982E-1,1.0683141E0,3.562541E-1,5.692879E-1,-0E0,-3.3910065E-3,-7.2014906E-2,5.1553715E-2,-6.82844E-2,4.0338878E-2,-2.4859883E-2,-7.261297E-2,-0E0,-7.161609E-2,-0E0],"split_indices":[3,29,0,18,0,2,24,9,9,24,10,18,0,0,0,0,0,0,0,0,0,0,0],"split_type":[0,0,0,0,0,0,0,0,0,0,0,0,0,0,0,0,0,0,0,0,0,0,0],"sum_hessian":[3.2087534E3,8.6904504E2,2.3397083E3,5.786622E2,2.903829E2,2.0643486E3,2.7535968E2,4.1100226E2,1.6765991E2,1.8076346E3,2.5671402E2,2.663935E2,8.9661875E0,1.2132099E2,2.8968127E2,1.0920544E2,5.845447E1,1.4890454E3,3.1858917E2,1.6654391E2,9.017009E1,2.4970403E2,1.6689459E1],"tree_param":{"num_deleted":"0","num_feature":"31","num_nodes":"23","size_leaf_vector":"1"}},{"base_weights":[-8.402676E-2,-8.044351E-1,4.555894E-2,-8.422769E-1,-0E0,2.862066E-1,-3.295175E-1,-7.428705E-2,-4.048818E-1,-3.7992425E-2,5.44914E-2,4.700858E-1,-3.00938E-1,-5.9607536E-1,9.389213E-2,-6.506322E-2,9.058079E-3,6.39818E-2,-1.3243202E-3,-5.758325E-2,3.328813E-2,-6.0434856E-2,-1.3103447E-2,-7.047159E-2,4.2104915E-2],"categories":[],"categories_nodes":[],"categories_segments":[],"categories_sizes":[],"default_left":[0,0,0,0,0,0,0,0,0,0,0,0,0,0,0,0,0,0,0,0,0,0,0,0,0],"id":51,"left_children":[1,3,5,7,9,11,13,-1,15,-1,-1,17,19,21,23,-1,-1,-1,-1,-1,-1,-1,-1,-1,-1],"loss_changes":[3.031414E2,1.3094269E1,2.4347018E2,2.0205994E0,9.79734E0,1.806628E2,1.21701355E2,0E0,2.159216E1,0E0,0E0,1.9733746E2,1.1339232E2,3.3049133E1,1.5785378E2,0E0,0E0,0E0,0E0,0E0,0E0,0E0,0E0,0E0,0E0],"parents":[2147483647,0,0,1,1,2,2,3,3,4,4,5,5,6,6,8,8,11,11,12,12,13,13,14,14],"right_children":[2,4,6,8,10,12,14,-1,16,-1,-1,18,20,22,24,-1,